// This file is computer-generated by onnx2c 
// (TODO: add creating command line here)
// (TODO: print creation date here )

// ONNX model:
// produced by pytorch, version 2.6.0+cu124
// ONNX IR version: 1
// Model documentation: 
/*

*/

#include "depth_model.h"

#include <float.h>
#include <math.h>
#include <stdbool.h>
#include <stdint.h>
#include <string.h>

#include "depth_model.h"
#include <stdio.h>
#include <stdlib.h>

#define CHANNELS 3
#define HEIGHT 520
#define WIDTH 240

void print_array(float arr[], int size) {
  printf("[");
  for (int i = 0; i < size; i++) {
    printf("%.2f ", arr[i]);
  }
  printf("]\n\n");
}

int main() {
  float *tensor = (float*)malloc(CHANNELS * HEIGHT * WIDTH * sizeof(float));
  if (!tensor) {
      printf("Memory allocation failed\n");
      return 1;
  }

  FILE *file = fopen("test_img.txt", "r");
  for (int i = 0; i < CHANNELS * HEIGHT * WIDTH; i++) {
      fscanf(file, "%f", &tensor[i]);
  }
  fclose(file);

  for (int i = 0; i < 10; i++) {
    printf("%f ", tensor[i]);
  }
  printf("\n");

  float depth_vector[1][DEPTH_VECTOR_SIZE] = {0};
  // const float (*tensor_reshaped)[3][520][240] = (const float (*)[3][520][240])tensor;
  const float tensor_reshaped[1][3][520][240] = {0};

  entry(tensor_reshaped, depth_vector);
  print_array(depth_vector[0], DEPTH_VECTOR_SIZE);

  free(tensor);
  return 0;
}

#define MAX(X,Y) ( X > Y ? X : Y)
#define MIN(X,Y) ( X < Y ? X : Y)
#define CLIP(X,L) ( MAX(MIN(X,L), -L) )

#if __STDC_VERSION__ < 199901L
#define FUNC_PREFIX
#else
#define FUNC_PREFIX static inline
#endif

static const float tensor_encoder1_depthwise_0_weight[3][3][3][3] = 
{
  {
    {
      {-0.0080270459875464439392f, 0.10858242213726043701f, 0.081897340714931488037f},
      {-0.11309947073459625244f, 0.21656495332717895508f, -0.025764483958482742310f},
      {0.20055598020553588867f, 0.10608228296041488647f, 0.17758117616176605225f}
    },
    {
      {-0.065924793481826782227f, -0.074917942285537719727f, -0.20401357114315032959f},
      {-0.16466338932514190674f, -0.14325103163719177246f, -0.091996237635612487793f},
      {-0.18873113393783569336f, 0.15349112451076507568f, 0.035221099853515625000f}
    },
    {
      {-0.0050295507535338401794f, -0.14985705912113189697f, 0.15114189684391021729f},
      {0.083486504852771759033f, -0.19583743810653686523f, 0.035819552838802337646f},
      {-0.076074838638305664062f, -0.19702255725860595703f, -0.061890147626399993896f}
    }
  },
  {
    {
      {-0.065814249217510223389f, -0.26667025685310363770f, 0.062238071113824844360f},
      {-0.10788112878799438477f, -0.17647834122180938721f, -0.22351396083831787109f},
      {-0.092137962579727172852f, -0.22349973022937774658f, 0.047661680728197097778f}
    },
    {
      {-0.030107364058494567871f, -0.15662898123264312744f, 0.036160614341497421265f},
      {-0.076310716569423675537f, -0.0025398565921932458878f, 0.058280393481254577637f},
      {-0.083737522363662719727f, -0.14432747662067413330f, -0.12419319152832031250f}
    },
    {
      {0.0019557499326765537262f, 0.23203535377979278564f, 0.18231038749217987061f},
      {-0.091917313635349273682f, 0.20695522427558898926f, 0.18787173926830291748f},
      {0.18820151686668395996f, -0.067873716354370117188f, 0.13526532053947448730f}
    }
  },
  {
    {
      {-0.10780669748783111572f, -0.13529382646083831787f, 0.14417701959609985352f},
      {0.13818046450614929199f, -0.13345448672771453857f, -0.0094761513173580169678f},
      {0.11435833573341369629f, -0.18899737298488616943f, -0.0010020709596574306488f}
    },
    {
      {0.23454512655735015869f, 0.14271524548530578613f, 0.24861413240432739258f},
      {-0.041379731148481369019f, -0.11560445278882980347f, -0.012484022416174411774f},
      {0.16863676905632019043f, 0.062247227877378463745f, -0.028540953993797302246f}
    },
    {
      {-0.20382529497146606445f, -0.22168849408626556396f, -0.14788182079792022705f},
      {0.050847429782152175903f, -0.0064288512803614139557f, -0.066161811351776123047f},
      {-0.23233222961425781250f, 0.012720666825771331787f, -0.24907511472702026367f}
    }
  }
};
static const float tensor_encoder1_depthwise_0_bias[3] = 
{0.0022121502552181482315f, 0.0049635176546871662140f, 0.0067082094028592109680f};
static const float tensor_encoder1_depthwise_1_weight[3] = 
{0.92271649837493896484f, 1.0450476408004760742f, 1.0478386878967285156f};
static const float tensor_encoder1_depthwise_1_bias[3] = 
{0.025805458426475524902f, 0.026858348399400711060f, 0.0077657974325120449066f};
static const float tensor_encoder1_pointwise_0_weight[32][3][1][1] = 
{
  {
    {
      {-0.073641203343868255615f}
    },
    {
      {-0.31503164768218994141f}
    },
    {
      {0.31512895226478576660f}
    }
  },
  {
    {
      {-0.0080667743459343910217f}
    },
    {
      {-0.045241579413414001465f}
    },
    {
      {-0.014922422356903553009f}
    }
  },
  {
    {
      {0.030323404818773269653f}
    },
    {
      {-0.010593848302960395813f}
    },
    {
      {-0.0095480335876345634460f}
    }
  },
  {
    {
      {0.29660332202911376953f}
    },
    {
      {-0.077084310352802276611f}
    },
    {
      {-0.053462140262126922607f}
    }
  },
  {
    {
      {0.29363462328910827637f}
    },
    {
      {0.20966316759586334229f}
    },
    {
      {-0.031506977975368499756f}
    }
  },
  {
    {
      {-0.12488209456205368042f}
    },
    {
      {-0.29829210042953491211f}
    },
    {
      {0.40330639481544494629f}
    }
  },
  {
    {
      {0.0041724648326635360718f}
    },
    {
      {-0.016212906688451766968f}
    },
    {
      {0.15974286198616027832f}
    }
  },
  {
    {
      {-0.064387470483779907227f}
    },
    {
      {0.62254148721694946289f}
    },
    {
      {0.010834091342985630035f}
    }
  },
  {
    {
      {0.025074938312172889709f}
    },
    {
      {-0.17718964815139770508f}
    },
    {
      {0.43242001533508300781f}
    }
  },
  {
    {
      {0.030335338786244392395f}
    },
    {
      {0.077590286731719970703f}
    },
    {
      {0.45443081855773925781f}
    }
  },
  {
    {
      {-0.10407742857933044434f}
    },
    {
      {-0.091640509665012359619f}
    },
    {
      {-0.083655871450901031494f}
    }
  },
  {
    {
      {-0.10806445777416229248f}
    },
    {
      {-0.13738030195236206055f}
    },
    {
      {-0.033160354942083358765f}
    }
  },
  {
    {
      {0.22489359974861145020f}
    },
    {
      {0.28847360610961914062f}
    },
    {
      {0.16828688979148864746f}
    }
  },
  {
    {
      {0.14071987569332122803f}
    },
    {
      {0.33989185094833374023f}
    },
    {
      {-0.060406140983104705811f}
    }
  },
  {
    {
      {0.22007100284099578857f}
    },
    {
      {0.35642015933990478516f}
    },
    {
      {0.29336768388748168945f}
    }
  },
  {
    {
      {-0.031535252928733825684f}
    },
    {
      {-0.018941849470138549805f}
    },
    {
      {0.38421389460563659668f}
    }
  },
  {
    {
      {0.043491713702678680420f}
    },
    {
      {-0.14497916400432586670f}
    },
    {
      {0.26622334122657775879f}
    }
  },
  {
    {
      {0.055252447724342346191f}
    },
    {
      {0.30821037292480468750f}
    },
    {
      {0.0040100077167153358459f}
    }
  },
  {
    {
      {-0.023023059591650962830f}
    },
    {
      {-0.053333006799221038818f}
    },
    {
      {-0.023987224325537681580f}
    }
  },
  {
    {
      {0.013889653608202934265f}
    },
    {
      {-0.19620294868946075439f}
    },
    {
      {-0.087569490075111389160f}
    }
  },
  {
    {
      {0.0014982396969571709633f}
    },
    {
      {0.0015307398280128836632f}
    },
    {
      {-3.1839360037366759570e-09f}
    }
  },
  {
    {
      {0.0095773413777351379395f}
    },
    {
      {0.20223306119441986084f}
    },
    {
      {0.26187333464622497559f}
    }
  },
  {
    {
      {-4.6509794628946110606e-05f}
    },
    {
      {-0.00042632635449990630150f}
    },
    {
      {-1.9228667547110944724e-09f}
    }
  },
  {
    {
      {-0.075137399137020111084f}
    },
    {
      {0.19348628818988800049f}
    },
    {
      {0.067686758935451507568f}
    }
  },
  {
    {
      {0.031569287180900573730f}
    },
    {
      {0.16332085430622100830f}
    },
    {
      {0.45465421676635742188f}
    }
  },
  {
    {
      {9.1087887994945049286e-05f}
    },
    {
      {-2.2979744244366884232e-05f}
    },
    {
      {-6.5070544508216698887e-08f}
    }
  },
  {
    {
      {0.075380198657512664795f}
    },
    {
      {6.4985033532138913870e-05f}
    },
    {
      {-0.00011929457104997709394f}
    }
  },
  {
    {
      {0.016847534105181694031f}
    },
    {
      {-0.31028687953948974609f}
    },
    {
      {0.34655714035034179688f}
    }
  },
  {
    {
      {0.19100806117057800293f}
    },
    {
      {0.29796209931373596191f}
    },
    {
      {-6.4971267420332878828e-05f}
    }
  },
  {
    {
      {0.40327301621437072754f}
    },
    {
      {-0.14128980040550231934f}
    },
    {
      {-0.095454737544059753418f}
    }
  },
  {
    {
      {-0.00098849995993077754974f}
    },
    {
      {0.051440130919218063354f}
    },
    {
      {0.29965588450431823730f}
    }
  },
  {
    {
      {-0.038909357041120529175f}
    },
    {
      {0.40313419699668884277f}
    },
    {
      {-0.29064616560935974121f}
    }
  }
};
static const float tensor_encoder1_pointwise_0_bias[32] = 
{0.12448289990425109863f, 0.11467370390892028809f, -0.047935299575328826904f, 0.034209027886390686035f, -0.046427428722381591797f, -0.11997247487306594849f, -0.0031955372542142868042f, -0.15612287819385528564f, 0.084941215813159942627f, 0.10857421159744262695f, -0.078089192509651184082f, 0.11843322217464447021f, -0.40787470340728759766f, -0.0097869671881198883057f, -0.11810424923896789551f, -0.15351393818855285645f, -0.020676514133810997009f, 0.11377564072608947754f, 0.23004265129566192627f, -0.13011451065540313721f, 0.00035075977211818099022f, -0.040902595967054367065f, 0.0039399550296366214752f, -0.24290752410888671875f, 0.037358995527029037476f, 7.2047077992465347052e-05f, 0.0022068081889301538467f, -0.15135961771011352539f, -0.079395629465579986572f, -0.10801804065704345703f, -0.047682050615549087524f, 0.044063959270715713501f};
static const float tensor_encoder1_pointwise_1_weight[32] = 
{0.58073514699935913086f, 0.023004336282610893250f, 0.038951355963945388794f, 0.38183903694152832031f, 0.42978167533874511719f, 0.71566915512084960938f, 0.13925433158874511719f, 0.75022041797637939453f, 0.62799173593521118164f, 0.53958761692047119141f, 0.37413921952247619629f, 0.49536952376365661621f, 0.52650004625320434570f, 0.32150739431381225586f, 0.68575632572174072266f, 0.62922048568725585938f, 0.37241077423095703125f, 0.16138637065887451172f, 0.046051558107137680054f, 0.47027766704559326172f, 1.4848689716018270701e-05f, 0.40072298049926757812f, -2.7458688123260799330e-07f, 0.34881988167762756348f, 0.56762963533401489258f, 2.3254120605997741222e-05f, 0.043710257858037948608f, 0.55021280050277709961f, 0.34998485445976257324f, 0.64410883188247680664f, 0.33018592000007629395f, 0.70170855522155761719f};
static const float tensor_encoder1_pointwise_1_bias[32] = 
{0.039513260126113891602f, 0.020503140985965728760f, -0.019380938261747360229f, 0.031702063977718353271f, -0.030365675687789916992f, 0.043418727815151214600f, -0.014356901869177818298f, 0.060925014317035675049f, 0.0096843000501394271851f, -0.0072252536192536354065f, 0.071336038410663604736f, 0.11183004081249237061f, -0.11461231112480163574f, -0.0087160672992467880249f, -0.091525286436080932617f, -0.0099214632064104080200f, -0.058297812938690185547f, 0.022080885246396064758f, 0.043419755995273590088f, 0.10615742951631546021f, 9.1302240434742998332e-07f, -0.050414513796567916870f, 6.2302937919866963057e-08f, -0.022003071382641792297f, -0.0021649042610079050064f, -0.00012585516378749161959f, 0.0031912650447338819504f, -0.088386423885822296143f, -0.046564541757106781006f, 0.063355647027492523193f, -0.023917417973279953003f, 0.054900858551263809204f};
static const float tensor_encoder2_depthwise_0_weight[32][32][3][3] = 
{
  {
    {
      {-1.5196821550489403307e-05f, -2.2906770027475431561e-05f, -2.5802164600463584065e-05f},
      {-1.3097977898723911494e-05f, -2.4863906219252385199e-05f, -2.4277169359265826643e-05f},
      {-1.0380369531048927456e-05f, -2.0896339265163987875e-05f, -2.2297223040368407965e-05f}
    },
    {
      {-3.9383834860018396284e-07f, -5.7853776525007560849e-07f, -5.2976770348323043436e-07f},
      {-5.0662072226259624586e-07f, -5.8585101214703172445e-07f, -5.3234396091283997521e-07f},
      {-4.9542029501026263461e-07f, -6.3929593352440861054e-07f, -5.8128802038481808268e-07f}
    },
    {
      {-1.7534455309942131862e-07f, -2.7457798523755627684e-07f, -1.2525869408364087576e-07f},
      {-2.9407999591057887301e-07f, -3.0765099268137419131e-07f, -2.0376717202452709898e-07f},
      {-2.6291317567483929452e-07f, -3.4197395848423184361e-07f, -2.5235851808247389272e-07f}
    },
    {
      {-3.5174431104678660631e-05f, -1.4911007383489049971e-05f, -1.0774570000648964196e-05f},
      {-3.1920957553666085005e-05f, -1.5617444660165347159e-05f, -1.2999335922359023243e-05f},
      {-2.4791066607576794922e-05f, -2.3432889065588824451e-05f, -1.0596333595458418131e-05f}
    },
    {
      {-9.6291078079957515001e-06f, -2.1926607587374746799e-05f, 1.0568401194177567959e-05f},
      {-1.2269209037185646594e-05f, -2.6448424250702373683e-05f, -3.3396581784472800791e-06f},
      {-3.7179813716647913679e-06f, -2.7067229893873445690e-05f, 4.5805668378307018429e-06f}
    },
    {
      {-2.8298596589593216777e-05f, -4.0609065763419494033e-05f, -4.7042365622473880649e-05f},
      {-2.7233434593654237688e-05f, -4.8139067075680941343e-05f, -4.9010144721250981092e-05f},
      {-2.1886153263039886951e-05f, -3.8808622775832191110e-05f, -4.2644129280233755708e-05f}
    },
    {
      {-2.3208554011944215745e-07f, -2.1511240788640861865e-07f, -2.1850125619948812528e-07f},
      {-1.3614629779112874530e-07f, -1.9374245141534629511e-07f, -1.7380419592427642783e-07f},
      {-1.9099120152077375678e-07f, -2.3974627083589439280e-07f, -2.0697686409221205395e-07f}
    },
    {
      {0.00022003853518981486559f, 0.00012143937783548608422f, -0.00012876036635134369135f},
      {0.00015803787391632795334f, -5.2815270464634522796e-05f, -0.00018875249952543526888f},
      {-3.2204305171035230160e-05f, -0.00022781167353969067335f, -0.00034642036189325153828f}
    },
    {
      {-8.6000563896959647536e-06f, -1.2147955203545279801e-05f, -1.9517754481057636440e-05f},
      {-6.1732780523016117513e-06f, -1.5873258234933018684e-05f, -2.0087487428099848330e-05f},
      {-3.1551658139505889267e-06f, -1.3365771337703336030e-05f, -1.8720063962973654270e-05f}
    },
    {
      {-3.9804044718039222062e-06f, -5.7426623243372887373e-06f, -9.7716183518059551716e-06f},
      {-7.1336999099003151059e-06f, -1.4103271496423985809e-05f, -1.5182094102783594280e-05f},
      {-4.4929597606824245304e-06f, -1.0285191820003092289e-05f, -1.1175321560585871339e-05f}
    },
    {
      {4.8577626330370549113e-06f, -1.4057205817152862437e-06f, 7.3642092957015847787e-07f},
      {-1.2667233022511936724e-06f, 6.6359070842736400664e-06f, 5.2106174734944943339e-06f},
      {-1.7003737866616575047e-06f, -2.0903460153931519017e-06f, -7.2040866143652237952e-06f}
    },
    {
      {4.4132048060419037938e-06f, -1.7644309764364152215e-06f, -2.1265407212922582403e-06f},
      {-3.7401600820885505527e-06f, -6.2653185750605189241e-08f, 3.1875192689767573029e-06f},
      {-1.0098441634909249842e-05f, -1.0848865713342092931e-05f, -9.5200894065783359110e-06f}
    },
    {
      {-1.5541127140750177205e-05f, -2.3376916942652314901e-05f, -7.0923069870332255960e-06f},
      {-2.1851532437722198665e-05f, -4.0921851905295625329e-05f, -2.6722145776147954166e-05f},
      {-1.5196235835901461542e-05f, -3.5802488127956166863e-05f, -1.4481533980870153755e-05f}
    },
    {
      {-1.0738041282820631750e-06f, -6.4532123360550031066e-06f, -9.7767656370706390589e-07f},
      {-1.9619687918748240918e-06f, -1.0369697520218323916e-05f, -6.9267762228264473379e-06f},
      {-2.2849656033940846100e-06f, -9.9388544185785576701e-06f, -3.8938292163948062807e-06f}
    },
    {
      {-2.1489615392056293786e-05f, -3.6400160752236843109e-05f, -2.1796355213155038655e-05f},
      {-3.6258003092370927334e-05f, -6.5509280830156058073e-05f, -5.1080347475362941623e-05f},
      {-2.5760375137906521559e-05f, -5.4310763516696169972e-05f, -3.2971805921988561749e-05f}
    },
    {
      {-1.8807646483764983714e-05f, -2.4568038497818633914e-05f, -4.3195199395995587111e-05f},
      {-1.9792616512859240174e-05f, -4.0463910409016534686e-05f, -5.2018196583958342671e-05f},
      {-1.0099306564370635897e-05f, -3.0117516871541738510e-05f, -4.1131625039270147681e-05f}
    },
    {
      {-1.6928549939621007070e-06f, -2.1145938262634444982e-06f, -2.3847935608500847593e-06f},
      {-1.0904741429840214550e-06f, -1.7149365021396079101e-06f, -1.9471565337880747393e-06f},
      {-1.3520923403120832518e-06f, -2.1483231193997198716e-06f, -2.0322377167758531868e-06f}
    },
    {
      {-1.9269234599050832912e-06f, -3.7107456591911613941e-06f, -1.7245225762962945737e-06f},
      {-2.8063038826076081023e-06f, -5.2329651225591078401e-06f, -3.3911335322045488283e-06f},
      {-2.4291730369441211224e-06f, -4.9622335609456058592e-06f, -2.4799116999929537997e-06f}
    },
    {
      {1.7254619422146788565e-07f, -3.7935490126983495429e-07f, -2.0858682603375200415e-07f},
      {-3.7968524679854454007e-07f, -1.2643585023397463374e-07f, -8.8524465979844535468e-08f},
      {-6.9270112135200179182e-07f, -7.1756068109607440419e-07f, -6.5918771952055976726e-07f}
    },
    {
      {-2.4890505301300436258e-05f, -3.5287801438244059682e-05f, -2.5924289730028249323e-05f},
      {-3.1290892366087064147e-05f, -2.9169639674364589155e-05f, -1.8967968571814708412e-05f},
      {-2.1769968952867202461e-05f, -2.3580270863021723926e-05f, -1.2663213965424802154e-05f}
    },
    {
      {5.4775486230118630715e-11f, -7.0819516917453029237e-11f, 3.8254288625694243819e-11f},
      {5.2434851599558740531e-11f, -1.1607680788783270032e-10f, 3.8405782026851298383e-11f},
      {5.2494786295653739217e-11f, -2.1169509201168779100e-10f, 4.0575678234011647305e-11f}
    },
    {
      {-8.0602458183420822024e-06f, -9.0909470600308850408e-06f, -1.3644635146192740649e-05f},
      {-1.3325037798495031893e-05f, -2.1138313968549482524e-05f, -2.2326625185087323189e-05f},
      {-1.0517215741856489331e-05f, -1.6343628885806538165e-05f, -1.7939610188477672637e-05f}
    },
    {
      {-2.3621622019520671643e-11f, -2.3550727340504451490e-11f, -2.1340533506997161339e-11f},
      {-2.8649294742111308665e-11f, -2.9694614822606268945e-11f, -2.5724047891806378630e-11f},
      {-2.3936162080184786305e-11f, -2.2095873741800886592e-11f, -1.8816915040020809613e-11f}
    },
    {
      {-5.9937183323199860752e-06f, -8.5760884758201427758e-06f, -1.6586011042818427086e-05f},
      {-7.6673204603139311075e-06f, -1.8580323740025050938e-05f, -2.5982004444813355803e-05f},
      {-1.2027461707475595176e-05f, -2.1151679902686737478e-05f, -2.7778436560765840113e-05f}
    },
    {
      {-1.3733934792981017381e-05f, -1.4818155250395648181e-05f, -2.3585498638567514718e-05f},
      {-2.1634168660966679454e-05f, -3.1337865948444232345e-05f, -3.7045094359200447798e-05f},
      {-1.4166159417072776705e-05f, -2.2380892914952710271e-05f, -2.6076200811075977981e-05f}
    },
    {
      {-6.4732572600811888464e-12f, -3.5620926781138040340e-12f, -9.9787981697185834662e-12f},
      {-3.2479548564556814938e-12f, -1.6610210385945012312e-12f, -5.0669733166197605811e-12f},
      {-5.5259677042562849181e-12f, -4.2426348892399268209e-12f, -1.5964536984047761337e-11f}
    },
    {
      {-1.3180226687836693600e-07f, -6.3406382366792968241e-09f, 1.1036747338266650331e-07f},
      {-2.1401859839897952043e-08f, 1.2424039574909784278e-08f, 1.1319660586650570622e-07f},
      {4.5913530755115061766e-08f, -5.7535086028792647994e-08f, 1.7100430227401375305e-07f}
    },
    {
      {-5.1419556257314980030e-06f, -6.7450669121171813458e-06f, -8.0791578511707484722e-06f},
      {-2.7217101887799799442e-06f, -5.1094034461129922420e-06f, -7.3976325438707135618e-06f},
      {-2.8088863928132923320e-06f, -5.6708231568336486816e-06f, -6.7768587541650049388e-06f}
    },
    {
      {-2.6458315005584154278e-06f, -8.8508977569290436804e-06f, 2.2239289592107525095e-06f},
      {-6.0650854720734059811e-06f, -1.4825939615548122674e-05f, -7.2391003413940779865e-06f},
      {-3.4099400636478094384e-06f, -1.1644686310319229960e-05f, -1.2832783795602153987e-06f}
    },
    {
      {-0.00025210660533048212528f, -0.00017622749146539717913f, -0.00016338030400220304728f},
      {-0.00024326992570422589779f, -0.00019159045768901705742f, -0.00015932759561110287905f},
      {-0.00021513817773666232824f, -0.00022823250037617981434f, -0.00017391721485182642937f}
    },
    {
      {-2.6276477456121938303e-06f, -3.4650838642846792936e-06f, -7.2451780397386755794e-06f},
      {-3.9056290006556082517e-06f, -7.8276598287629894912e-06f, -1.0126090273843146861e-05f},
      {-1.9373958366486476734e-06f, -5.6112544370989780873e-06f, -7.8609346019220538437e-06f}
    },
    {
      {0.00023312555276788771152f, 0.00014850695151835680008f, 0.00024648901307955384254f},
      {0.00026452474412508308887f, 0.00020331965060904622078f, 0.00015210306446533650160f},
      {0.00019987688574474304914f, 0.00014933422789908945560f, 6.0719099565176293254e-05f}
    }
  },
  {
    {
      {0.022945202887058258057f, 0.024072024971246719360f, 0.019606856629252433777f},
      {0.042399935424327850342f, 0.041044536978006362915f, 0.026662344112992286682f},
      {0.044475834816694259644f, 0.043688479810953140259f, 0.034686919301748275757f}
    },
    {
      {0.0019098611082881689072f, 0.0020571369677782058716f, 0.0018778485246002674103f},
      {0.0020926790311932563782f, 0.0020877362694591283798f, 0.0018685457762330770493f},
      {0.0022426063660532236099f, 0.0022460410837084054947f, 0.0019766574259847402573f}
    },
    {
      {0.0020052827894687652588f, 0.0016276881797239184380f, 0.0011712587438523769379f},
      {0.0015711286105215549469f, 0.0011019046651199460030f, 0.00091878819512203335762f},
      {0.0010502714430913329124f, 0.00057624594774097204208f, 0.00033867190359160304070f}
    },
    {
      {0.050478037446737289429f, 0.030876535922288894653f, 0.012632420286536216736f},
      {0.021687539294362068176f, 0.0066069536842405796051f, 0.00084767927182838320732f},
      {-0.0075982916168868541718f, -0.028968172147870063782f, -0.037623569369316101074f}
    },
    {
      {0.012226074002683162689f, -0.0098897209390997886658f, -0.031792182475328445435f},
      {-0.027525961399078369141f, -0.041014384478330612183f, -0.044650875031948089600f},
      {-0.082725316286087036133f, -0.11106832325458526611f, -0.11104257404804229736f}
    },
    {
      {0.021376719698309898376f, 0.020589023828506469727f, 0.020863922312855720520f},
      {0.053889617323875427246f, 0.045572977513074874878f, 0.024526085704565048218f},
      {0.047355487942695617676f, 0.047196675091981887817f, 0.038846284151077270508f}
    },
    {
      {-0.00033043482108041644096f, -0.00074537942418828606606f, -0.00098757899831980466843f},
      {3.0742292437935248017e-05f, -0.00042578356806188821793f, -0.00042913030483759939671f},
      {-0.00022184390400070697069f, -0.00090101885143667459488f, -0.00070636760210618376732f}
    },
    {
      {-0.048761498183012008667f, -0.055742166936397552490f, -0.014858481474220752716f},
      {-0.070876017212867736816f, -0.061879999935626983643f, -0.017079494893550872803f},
      {-0.075111389160156250000f, -0.071717642247676849365f, -0.023404303938150405884f}
    },
    {
      {-0.010462710633873939514f, -0.022479519248008728027f, -0.026954639703035354614f},
      {-0.00049800920533016324043f, -0.0065912241116166114807f, -0.019016098231077194214f},
      {-0.010006597265601158142f, -0.015404390171170234680f, -0.019457286223769187927f}
    },
    {
      {-0.0095328502357006072998f, -0.023390540853142738342f, -0.019507197663187980652f},
      {-0.0060857622884213924408f, -0.013064761646091938019f, -0.010411233641207218170f},
      {-0.018827516585588455200f, -0.023755123838782310486f, -0.021001527085900306702f}
    },
    {
      {0.033905435353517532349f, 0.040844801813364028931f, 0.039740726351737976074f},
      {0.038651257753372192383f, 0.044445782899856567383f, 0.043436650186777114868f},
      {0.052571594715118408203f, 0.057334177196025848389f, 0.054954376071691513062f}
    },
    {
      {0.040350977331399917603f, 0.052577219903469085693f, 0.052323233336210250854f},
      {0.058985538780689239502f, 0.066150248050689697266f, 0.058593373745679855347f},
      {0.072595842182636260986f, 0.084078103303909301758f, 0.075728096067905426025f}
    },
    {
      {-0.012246280908584594727f, -0.035317055881023406982f, -0.036707915365695953369f},
      {-0.032617583870887756348f, -0.047769885510206222534f, -0.041740313172340393066f},
      {-0.072258345782756805420f, -0.091965474188327789307f, -0.082288779318332672119f}
    },
    {
      {-0.012366753071546554565f, -0.015707803890109062195f, -0.015214942395687103271f},
      {-0.023194862529635429382f, -0.022794548422098159790f, -0.019300367683172225952f},
      {-0.031317800283432006836f, -0.035649847239255905151f, -0.030894046649336814880f}
    },
    {
      {-0.024915391579270362854f, -0.056465666741132736206f, -0.047759197652339935303f},
      {-0.041703492403030395508f, -0.061423342674970626831f, -0.045966513454914093018f},
      {-0.082752078771591186523f, -0.10394439846277236938f, -0.085765212774276733398f}
    },
    {
      {-0.0033534073736518621445f, -0.017133802175521850586f, -0.0076323091052472591400f},
      {0.012265629135072231293f, 0.0018258789787068963051f, -0.00051569321658462285995f},
      {-0.0022820243611931800842f, -0.013385715894401073456f, -0.0029448573477566242218f}
    },
    {
      {-0.0028646346181631088257f, -0.0070812450721859931946f, -0.0082851266488432884216f},
      {-0.00075916654895991086960f, -0.0049099945463240146637f, -0.0047634858638048171997f},
      {-0.0041977348737418651581f, -0.0083253541961312294006f, -0.0084872180595993995667f}
    },
    {
      {-0.00070171151310205459595f, -0.00099235877860337495804f, -0.00069398892810568213463f},
      {-0.00024907520855776965618f, -0.00027509490610100328922f, 0.00036239999462850391865f},
      {5.0235321396030485630e-05f, -3.3438300306443125010e-05f, 0.00024970652884803712368f}
    },
    {
      {0.0039867367595434188843f, 0.0049303015694022178650f, 0.0045743137598037719727f},
      {0.0049436711706221103668f, 0.0054193967953324317932f, 0.0047741923481225967407f},
      {0.0058717834763228893280f, 0.0064967651851475238800f, 0.0056845718063414096832f}
    },
    {
      {0.081397004425525665283f, 0.082671806216239929199f, 0.071599118411540985107f},
      {0.083355732262134552002f, 0.086490258574485778809f, 0.063251897692680358887f},
      {0.082661971449851989746f, 0.085766941308975219727f, 0.064700841903686523438f}
    },
    {
      {4.8277474462565805879e-08f, 5.1376986220930120908e-08f, 5.8662681823307138984e-08f},
      {4.6651038587697257753e-08f, 5.2499370184477811563e-08f, 5.6201081122253526701e-08f},
      {4.1823167151733287028e-08f, 4.7792855895067987149e-08f, 5.1651404930908029201e-08f}
    },
    {
      {-0.0064601073972880840302f, -0.018160566687583923340f, -0.0090839741751551628113f},
      {-0.0056775333359837532043f, -0.012102189473807811737f, -0.0029932362958788871765f},
      {-0.015583766624331474304f, -0.020376335829496383667f, -0.012024156749248504639f}
    },
    {
      {3.7325868618154345313e-08f, 3.5764035288821105496e-08f, 3.5611378734756726772e-08f},
      {3.7432453581232039141e-08f, 3.4989902530924155144e-08f, 3.3820786171645522700e-08f},
      {4.3051720410858251853e-08f, 3.1061386351893816027e-08f, 2.7779815781059369328e-08f}
    },
    {
      {-0.013646007515490055084f, -0.014587463811039924622f, -0.0024532848037779331207f},
      {-0.017094252631068229675f, -0.013360807672142982483f, -0.0018067590426653623581f},
      {-0.020042026415467262268f, -0.018877057358622550964f, -0.0045005190186202526093f}
    },
    {
      {-0.0096174459904432296753f, -0.028097286820411682129f, -0.018297880887985229492f},
      {-0.0064135044813156127930f, -0.017012199386954307556f, -0.010090737603604793549f},
      {-0.021873204037547111511f, -0.030545230954885482788f, -0.021359350532293319702f}
    },
    {
      {1.3671838416939863237e-07f, 2.0781088494459254434e-07f, 2.0025042601901077433e-07f},
      {1.2947924687978229485e-07f, 1.4242181123336195014e-07f, 1.2532093762729346054e-07f},
      {1.6733832808313309215e-07f, 1.1987100378973991610e-07f, 9.0075069181239086902e-08f}
    },
    {
      {-0.00014422326057683676481f, -0.00042950917850248515606f, -0.0010401000035926699638f},
      {-0.00092325900914147496223f, -0.0012930602533742785454f, -0.0015235242899507284164f},
      {-0.0022534024901688098907f, -0.0028532752767205238342f, -0.0028956010937690734863f}
    },
    {
      {-0.0075820819474756717682f, -0.012719286605715751648f, -0.019101794809103012085f},
      {-0.0037887620273977518082f, -0.0064012571237981319427f, -0.013848793692886829376f},
      {-0.0060114460065960884094f, -0.0099142976105213165283f, -0.014542696066200733185f}
    },
    {
      {-0.010965484194457530975f, -0.017515707761049270630f, -0.020907564088702201843f},
      {-0.024403288960456848145f, -0.028728382661938667297f, -0.026692820712924003601f},
      {-0.043494071811437606812f, -0.052973892539739608765f, -0.049167741090059280396f}
    },
    {
      {0.12266083806753158569f, 0.082961514592170715332f, 0.041511274874210357666f},
      {0.053489148616790771484f, 0.020844813436269760132f, 0.0019665304571390151978f},
      {-0.015439231880009174347f, -0.055114172399044036865f, -0.060986209660768508911f}
    },
    {
      {-0.0031245378777384757996f, -0.0093038436025381088257f, -0.0055026267655193805695f},
      {-0.0017455983906984329224f, -0.0052859471179544925690f, -0.0032147613819688558578f},
      {-0.0065243416465818881989f, -0.0098947174847126007080f, -0.0059004542417824268341f}
    },
    {
      {-0.038213729858398437500f, -0.031901773065328598022f, -0.019666587933897972107f},
      {-0.055411238223314285278f, -0.040941908955574035645f, -0.012366130016744136810f},
      {-0.039427105337381362915f, -0.029953183606266975403f, -0.012132020667195320129f}
    }
  },
  {
    {
      {-0.00019389306544326245785f, 0.0024001828860491514206f, 0.0017215475672855973244f},
      {-0.0047583868727087974548f, -0.0050025624223053455353f, -0.0044992445036768913269f},
      {-0.0028090164996683597565f, -0.0033403786364942789078f, -0.0010564103722572326660f}
    },
    {
      {0.00010232389468001201749f, 1.5956913557602092624e-05f, 4.8653979320079088211e-05f},
      {0.00014385886606760323048f, 7.1997637860476970673e-05f, 0.00010371064126957207918f},
      {0.00013476818276103585958f, 6.1917446146253496408e-05f, 8.3882754552178084850e-05f}
    },
    {
      {1.7277185406783246435e-06f, -4.1167666495312005281e-05f, -1.2354567843431141227e-05f},
      {3.4431264793965965509e-05f, 1.9535484170773997903e-05f, 4.6777811803622171283e-05f},
      {1.8461874788044951856e-05f, -3.6896865367452846840e-06f, 2.2899475879967212677e-05f}
    },
    {
      {-0.0038450481370091438293f, -0.0030959763098508119583f, -0.0020004040561616420746f},
      {-0.0036148703657090663910f, -0.0018037864938378334045f, -0.00071717210812494158745f},
      {-0.0046413028612732887268f, -0.0031015814747661352158f, -0.0020680776797235012054f}
    },
    {
      {-0.0064948294311761856079f, -0.00093566381838172674179f, -6.4373358327429741621e-05f},
      {-0.0066601000726222991943f, -9.6756011771503835917e-05f, -0.00062395673012360930443f},
      {-0.0069373901933431625366f, -0.00025019724853336811066f, -0.00048409111332148313522f}
    },
    {
      {0.0025430559180676937103f, 0.0088803842663764953613f, 0.0060969409532845020294f},
      {-0.0078256325796246528625f, -0.0061813024803996086121f, -0.0083083519712090492249f},
      {-0.0039618168957531452179f, -0.0024301689118146896362f, -0.0014025421114638447762f}
    },
    {
      {-0.00060273753479123115540f, -0.00042326338007114827633f, -0.00021431078494060784578f},
      {-0.00056322559248656034470f, -0.00053416384616866707802f, -0.00033253710716962814331f},
      {-0.00048322972725145518780f, -0.00033272177097387611866f, -0.00011755403829738497734f}
    },
    {
      {0.0072220349684357643127f, 0.036035049706697463989f, 0.017492951825261116028f},
      {0.013732912950217723846f, 0.042880449444055557251f, 0.020103558897972106934f},
      {0.023530280217528343201f, 0.059513695538043975830f, 0.027779558673501014709f}
    },
    {
      {-0.0023443796671926975250f, 0.0064506283961236476898f, 0.0029737914446741342545f},
      {-0.0091818943619728088379f, -0.0063602137379348278046f, -0.0083086071535944938660f},
      {-0.0048824357800185680389f, -0.0018352511106058955193f, -0.00039876552182249724865f}
    },
    {
      {-0.0022067499812692403793f, 0.0066655566915869712830f, 0.0014339280314743518829f},
      {-0.0077795628458261489868f, -0.0036399178206920623779f, -0.0074021811597049236298f},
      {-0.0037620752118527889252f, 0.00088465726003050804138f, -0.00071984733222052454948f}
    },
    {
      {0.0030744937248528003693f, 0.00040291572804562747478f, 0.0017601783620193600655f},
      {0.0041090948507189750671f, 0.0018177143065258860588f, 0.0031309679616242647171f},
      {0.0028894543647766113281f, 0.0010757581330835819244f, 0.0018585242796689271927f}
    },
    {
      {0.0048271166160702705383f, -0.00015966438513714820147f, 0.0020673659164458513260f},
      {0.0047050062566995620728f, 0.00029493850888684391975f, 0.0024965431075543165207f},
      {0.0029885943513363599777f, -0.00092412409139797091484f, 0.00068349059438332915306f}
    },
    {
      {-0.0041151586920022964478f, 0.0079891495406627655029f, 0.0019019078463315963745f},
      {-0.0085698571056127548218f, 0.0021836799569427967072f, -0.0042500635609030723572f},
      {-0.0051704533398151397705f, 0.0057466095313429832458f, 0.00084690691437572240829f}
    },
    {
      {-0.00069695734418928623199f, 0.0017515430226922035217f, 0.00081907567800953984261f},
      {-0.0012199603952467441559f, 0.0016847129445523023605f, 0.00024337916693184524775f},
      {-0.0010833421256393194199f, 0.0025015410501509904861f, 0.0013678442919626832008f}
    },
    {
      {-0.0069503788836300373077f, 0.016640240326523780823f, 0.0034617774654179811478f},
      {-0.016222434118390083313f, 0.0030531107913702726364f, -0.0098052844405174255371f},
      {-0.0072716409340500831604f, 0.013033373281359672546f, 0.0040178075432777404785f}
    },
    {
      {0.0029640197753906250000f, 0.018780233338475227356f, 0.0092627340927720069885f},
      {-0.0097337644547224044800f, 0.0014988991897553205490f, -0.0074700773693621158600f},
      {-0.0013012727722525596619f, 0.0085808485746383666992f, 0.0041588069871068000793f}
    },
    {
      {-0.0036273396108299493790f, -0.0022298111580312252045f, -0.0012676542392000555992f},
      {-0.0037672712933272123337f, -0.0034670885652303695679f, -0.0023680771701037883759f},
      {-0.0029222175944596529007f, -0.0023525271099060773849f, -0.00072635355172678828239f}
    },
    {
      {0.00011333911243127658963f, 0.00035951082827523350716f, -2.5077522877836599946e-05f},
      {-0.00053076160838827490807f, -0.00032428104896098375320f, -0.00075539364479482173920f},
      {-0.00041668012272566556931f, -0.00017167990154121071100f, -0.00044090935261920094490f}
    },
    {
      {0.00016083753143902868032f, -0.00012751854956150054932f, -3.7746911402791738510e-05f},
      {0.00028583113453350961208f, 6.1117549194023013115e-05f, 0.00015544840425718575716f},
      {0.00022300174168776720762f, 1.3973956811241805553e-05f, 6.0049940657336264849e-05f}
    },
    {
      {0.00093118072254583239555f, -0.0039483122527599334717f, -0.00025781555450521409512f},
      {0.0018496253760531544685f, -0.0021999520249664783478f, 0.0015351738547906279564f},
      {-0.0015496461419388651848f, -0.0049913330003619194031f, -0.0024021444842219352722f}
    },
    {
      {1.9744442525393424148e-08f, 1.9011581642303099215e-08f, 1.7122584239359639469e-08f},
      {1.5862761770790712035e-08f, 1.6202013952693050669e-08f, 1.4903509537589343381e-08f},
      {1.3878589832927445968e-08f, 1.6203001607095757208e-08f, 1.3211832516901722556e-08f}
    },
    {
      {-0.00047807520604692399502f, 0.0086988620460033416748f, 0.0026663057506084442139f},
      {-0.0051530878990888595581f, 0.0020518787205219268799f, -0.0040289647877216339111f},
      {-0.00094882003031671047211f, 0.0068338518030941486359f, 0.0024994097184389829636f}
    },
    {
      {-1.2109363511925153034e-09f, -1.3907475171492933441e-09f, -1.2959042727800351713e-09f},
      {-1.0017010554363992014e-09f, -1.2191737619460241149e-09f, -1.3053623737491193424e-09f},
      {-9.8601715681212454001e-10f, -1.2865223331104402860e-09f, -1.1889039752688290719e-09f}
    },
    {
      {0.0029379178304225206375f, 0.0095044774934649467468f, 0.0046867416240274906158f},
      {0.0018103113397955894470f, 0.0080242408439517021179f, 0.0021767462603747844696f},
      {0.0042787063866853713989f, 0.011759747751057147980f, 0.0067371469922363758087f}
    },
    {
      {-0.00063895335188135504723f, 0.014843475073575973511f, 0.0044913501478731632233f},
      {-0.0096049541607499122620f, 0.00056957866763696074486f, -0.0081298500299453735352f},
      {-0.0023569543845951557159f, 0.0077912458218634128571f, 0.0021738787181675434113f}
    },
    {
      {-3.1989517371849851557e-12f, -2.0118468523067090103e-12f, -1.3249553364180766124e-12f},
      {-1.8242905016480071012e-12f, -3.3006101107443952536e-13f, -9.8137286057980999132e-13f},
      {-1.7482245035296828384e-12f, -8.7972760586668696803e-13f, -1.0708578121465528454e-12f}
    },
    {
      {-1.5474664905923418701e-05f, -1.2364321264612954110e-05f, 1.5857956896070390940e-05f},
      {-2.4094091713777743280e-05f, -4.4193438952788710594e-06f, 6.9034904299769550562e-06f},
      {-2.0816660253331065178e-05f, -1.0438020581204909831e-05f, 3.5000302887056022882e-06f}
    },
    {
      {-0.0049313991330564022064f, -0.0016770480433478951454f, -0.00044063874520361423492f},
      {-0.0059012244455516338348f, -0.0058353748172521591187f, -0.0036455325316637754440f},
      {-0.0036355054471641778946f, -0.0038759922608733177185f, -0.00031063400092534720898f}
    },
    {
      {-0.00058196671307086944580f, 0.0015206496464088559151f, 0.00089400820434093475342f},
      {-0.0024095389526337385178f, 0.00043117668246850371361f, -0.0011091994820162653923f},
      {-0.0024566445499658584595f, 0.0010644817957654595375f, 4.0715887735132128000e-05f}
    },
    {
      {-0.018888751044869422913f, -0.014761052094399929047f, -0.0095052924007177352905f},
      {-0.014863871969282627106f, -0.0098583567887544631958f, -0.0053105424158275127411f},
      {-0.018540704622864723206f, -0.015695957466959953308f, -0.011301199905574321747f}
    },
    {
      {4.4311080273473635316e-05f, 0.0043627754785120487213f, 0.0018458247650414705276f},
      {-0.0024126942735165357590f, 0.00030194496503099799156f, -0.0019651427865028381348f},
      {-0.00036935598473064601421f, 0.0022662768606096506119f, 0.00098094285931438207626f}
    },
    {
      {-0.0015076269628480076790f, 0.0065705035813152790070f, 0.0055661830119788646698f},
      {0.0058313375338912010193f, 0.015444193966686725616f, 0.012744560837745666504f},
      {0.0056783100590109825134f, 0.018532210960984230042f, 0.013422184623777866364f}
    }
  },
  {
    {
      {0.00071416911669075489044f, 0.0021821523550897836685f, -0.0010389906819909811020f},
      {0.011146403849124908447f, 0.014025773853063583374f, 0.010329606011509895325f},
      {0.0094353640452027320862f, 0.0092096468433737754822f, 0.0054545286111533641815f}
    },
    {
      {0.00038554467028006911278f, 0.00068483653012663125992f, 0.00072926533175632357597f},
      {0.00046354983351193368435f, 0.00067533046239987015724f, 0.00074126006802543997765f},
      {0.00047087843995541334152f, 0.00069864344550296664238f, 0.00073359603993594646454f}
    },
    {
      {0.00041605462320148944855f, 0.0011988760670647025108f, 0.0010944323148578405380f},
      {0.00055838364642113447189f, 0.0012491039233282208443f, 0.0011169577483087778091f},
      {0.00064690114231780171394f, 0.0014478336088359355927f, 0.0011756512103602290154f}
    },
    {
      {0.011504026129841804504f, 0.044380098581314086914f, 0.040907829999923706055f},
      {0.018306221812963485718f, 0.050559908151626586914f, 0.040977235883474349976f},
      {0.022000126540660858154f, 0.052377715706825256348f, 0.039086259901523590088f}
    },
    {
      {0.0024813557974994182587f, 0.046493321657180786133f, 0.024657366797327995300f},
      {0.0085129793733358383179f, 0.052239079028367996216f, 0.027448650449514389038f},
      {0.0087615977972745895386f, 0.051314581185579299927f, 0.024140875786542892456f}
    },
    {
      {0.0011667830403894186020f, -0.0012865588068962097168f, -0.0070074805989861488342f},
      {0.013568739406764507294f, 0.014870847575366497040f, 0.0085537116974592208862f},
      {0.010112501680850982666f, 0.0063320323824882507324f, 0.0016389074735343456268f}
    },
    {
      {-0.00050786003703251481056f, -0.00056298758136108517647f, -0.00044654874363914132118f},
      {0.00017878127982839941978f, 0.00020160790882073342800f, 0.00012741488171741366386f},
      {0.00012992664414923638105f, 9.0125293354503810406e-05f, -0.00040603199158795177937f}
    },
    {
      {-0.022704428061842918396f, -0.037069223821163177490f, -0.049238026142120361328f},
      {-0.041791301220655441284f, -0.040641684085130691528f, -0.048051148653030395508f},
      {-0.048950120806694030762f, -0.050739180296659469604f, -0.050046816468238830566f}
    },
    {
      {-0.016385862603783607483f, -0.014337897300720214844f, -0.023529576137661933899f},
      {-0.0069160722196102142334f, 0.0019283490255475044250f, -0.0084268935024738311768f},
      {-0.010263342410326004028f, -0.0064895418472588062286f, -0.019006179645657539368f}
    },
    {
      {-0.013743148185312747955f, -0.014130804687738418579f, -0.015477934852242469788f},
      {-0.0046714404597878456116f, 0.00045020467950962483883f, -0.0047684712335467338562f},
      {-0.0082529606297612190247f, -0.0062421713955700397491f, -0.015877142548561096191f}
    },
    {
      {0.012076766230165958405f, 0.013573941774666309357f, 0.015660509467124938965f},
      {0.011346548795700073242f, 0.011446375399827957153f, 0.014899200759828090668f},
      {0.012029550969600677490f, 0.012224664911627769470f, 0.016170229762792587280f}
    },
    {
      {0.019062830135226249695f, 0.017561303451657295227f, 0.021654976531863212585f},
      {0.019894264638423919678f, 0.018036788329482078552f, 0.021575180813670158386f},
      {0.021540110930800437927f, 0.016493644565343856812f, 0.022537680342793464661f}
    },
    {
      {-0.0094604669138789176941f, 0.0051238504238426685333f, -0.0075029558502137660980f},
      {-0.0020306261721998453140f, 0.018365109339356422424f, 0.0041429242119193077087f},
      {-0.0075861136429011821747f, 0.013784436509013175964f, -0.0034798136912286281586f}
    },
    {
      {-0.0046415915712714195251f, -0.00072539871325716376305f, -0.0064124930649995803833f},
      {-0.0071338801644742488861f, 0.00046104515786282718182f, -0.0054078851826488971710f},
      {-0.0074336603283882141113f, -0.00093476433539763092995f, -0.0068603875115513801575f}
    },
    {
      {-0.021547200158238410950f, -0.014223011210560798645f, -0.027305750176310539246f},
      {-0.0081046903505921363831f, 0.0082215340808033943176f, -0.0056556831113994121552f},
      {-0.019288623705506324768f, -0.0030781505629420280457f, -0.021346755325794219971f}
    },
    {
      {-0.014322277158498764038f, -0.020784931257367134094f, -0.029489142820239067078f},
      {-0.00068617472425103187561f, 0.00016138191858772188425f, -0.011725542135536670685f},
      {-0.010542062111198902130f, -0.012769001536071300507f, -0.023098364472389221191f}
    },
    {
      {-0.0058838054537773132324f, -0.0052950177341699600220f, -0.0048170262016355991364f},
      {-0.00088223384227603673935f, 0.00022016106231603771448f, -0.00022986264957580715418f},
      {-0.0013615729985758662224f, -0.0010855154832825064659f, -0.0042698159813880920410f}
    },
    {
      {-0.00075445487163960933685f, -0.00091941445134580135345f, -0.0016581504605710506439f},
      {-0.00058984447969123721123f, -0.00014727080997545272112f, -0.00088491867063567042351f},
      {-0.00077018502634018659592f, -0.0010739131830632686615f, -0.0014244866324588656425f}
    },
    {
      {0.0010227670427411794662f, 0.0014780234778299927711f, 0.0017026633722707629204f},
      {0.0010738437995314598083f, 0.0012630384881049394608f, 0.0016020411858335137367f},
      {0.0010949958814308047295f, 0.0013268825132399797440f, 0.0016339779831469058990f}
    },
    {
      {0.030534854158759117126f, 0.045266155153512954712f, 0.052665323019027709961f},
      {0.035111110657453536987f, 0.048702910542488098145f, 0.048933073878288269043f},
      {0.038558121770620346069f, 0.051576595753431320190f, 0.056571915745735168457f}
    },
    {
      {-1.0765546676338999532e-08f, 2.1769473335098155076e-07f, -7.5847541580742472433e-09f},
      {5.1676551926504998846e-09f, 2.7802219193517885287e-08f, 1.1212867967458350904e-08f},
      {5.0543316199025412061e-09f, 2.3977094087967998348e-07f, 1.1189722037840965640e-08f}
    },
    {
      {-0.010450631380081176758f, -0.015205857343971729279f, -0.015213484875857830048f},
      {-0.0033379965461790561676f, -0.0023719610180705785751f, -0.0061952914111316204071f},
      {-0.0070412829518318176270f, -0.0080865584313869476318f, -0.013958135619759559631f}
    },
    {
      {5.7918065898832082894e-09f, 9.0038980715689831413e-09f, 8.6443998625895801524e-09f},
      {6.4645035990906762891e-09f, 8.8507494666600905475e-09f, 8.9607867792551587627e-09f},
      {5.7084199589496620320e-09f, 8.5663600657426286489e-09f, 7.7848811841363385611e-09f}
    },
    {
      {-0.0040095937438309192657f, -0.011107159778475761414f, -0.013386154547333717346f},
      {-0.0075637716799974441528f, -0.0093401921913027763367f, -0.011502481065690517426f},
      {-0.010270414873957633972f, -0.012844377197325229645f, -0.012828376144170761108f}
    },
    {
      {-0.016616346314549446106f, -0.021262673661112785339f, -0.026275098323822021484f},
      {-0.0051823835819959640503f, -0.0024688651319593191147f, -0.010321766138076782227f},
      {-0.013546683825552463531f, -0.013362368568778038025f, -0.023970363661646842957f}
    },
    {
      {2.0810789536085394502e-08f, 3.0455407085128172184e-08f, 3.7517427387001589523e-08f},
      {2.7463292084917156899e-08f, 3.0262643946343814605e-08f, 4.2488334628387747216e-08f},
      {2.0811858902902713453e-08f, 3.4074478350021308870e-08f, 3.6651286450251063798e-08f}
    },
    {
      {8.8048960606101900339e-05f, 0.0010270994389429688454f, 0.00049527280498296022415f},
      {0.00027551775565370917320f, 0.0012945268535986542702f, 0.00060805148677900433540f},
      {0.00028464588103815913200f, 0.0016081490321084856987f, 0.00064783863490447402000f}
    },
    {
      {-0.011894090101122856140f, -0.0084781534969806671143f, -0.013282626867294311523f},
      {-0.0047574937343597412109f, 0.0023930701427161693573f, -0.0035701922606676816940f},
      {-0.0047544031403958797455f, -0.0019054149743169546127f, -0.0099590234458446502686f}
    },
    {
      {-0.0046552447602152824402f, 0.0046217138879001140594f, -0.0037076547741889953613f},
      {-0.0037359849084168672562f, 0.0084286546334624290466f, 0.00033317296765744686127f},
      {-0.0041545447893440723419f, 0.0073044910095632076263f, -0.0025180713273584842682f}
    },
    {
      {0.026413338258862495422f, 0.10517340153455734253f, 0.091258525848388671875f},
      {0.047018311917781829834f, 0.11525821685791015625f, 0.10082945227622985840f},
      {0.053316388279199600220f, 0.12745670974254608154f, 0.098943911492824554443f}
    },
    {
      {-0.0058348653838038444519f, -0.0082449996843934059143f, -0.0093690920621156692505f},
      {-0.00098115217406302690506f, 2.9834980523446574807e-05f, -0.0034696043003350496292f},
      {-0.0027272566221654415131f, -0.0031978881452232599258f, -0.0074617802165448665619f}
    },
    {
      {-0.018407601863145828247f, -0.018178382888436317444f, -0.029090076684951782227f},
      {-0.039101433008909225464f, -0.029608180746436119080f, -0.031847283244132995605f},
      {-0.034843008965253829956f, -0.029807714745402336121f, -0.029092714190483093262f}
    }
  },
  {
    {
      {-0.0049972203560173511505f, -0.0068832198157906532288f, 0.0031733931973576545715f},
      {-0.0061940453015267848969f, -0.0076430146582424640656f, 0.0024886194150894880295f},
      {-0.0092952689155936241150f, -0.011602778919041156769f, -0.0055091790854930877686f}
    },
    {
      {-0.00027356221107766032219f, -0.00020437892817426472902f, -0.00023979925026651471853f},
      {-0.00032769280369393527508f, -0.00025885590002872049809f, -0.00028794343234039843082f},
      {-0.00033183165942318737507f, -0.00027043369482271373272f, -0.00029722726321779191494f}
    },
    {
      {-0.00026600752607919275761f, -0.00025964074302464723587f, -0.00025803915923461318016f},
      {-0.00018972640100400894880f, -9.5403171144425868988e-05f, -0.00021959903824608772993f},
      {-5.7862987887347117066e-05f, 0.00025874687707982957363f, -3.7537187580483077909e-08f}
    },
    {
      {-0.0072421580553054809570f, -0.0027550107333809137344f, -0.00087471870938315987587f},
      {-0.00027444114675745368004f, 0.0065049352124333381653f, 0.0031737906392663717270f},
      {0.0088508045300841331482f, 0.016323663294315338135f, 0.012084156274795532227f}
    },
    {
      {-0.0074842809699475765228f, -0.0055682091042399406433f, 0.0015011079376563429832f},
      {0.0035296524874866008759f, 0.0061701247468590736389f, 0.011797886341810226440f},
      {0.020234743133187294006f, 0.025311438366770744324f, 0.028841873630881309509f}
    },
    {
      {-0.0064158020541071891785f, -0.011159105226397514343f, 0.0080251572653651237488f},
      {-0.0079768067225813865662f, -0.011708648875355720520f, 0.0095528131350874900818f},
      {-0.012894939631223678589f, -0.017107654362916946411f, -0.0038182393182069063187f}
    },
    {
      {-0.00026688937214203178883f, -0.00048964819870889186859f, 0.00088536116527393460274f},
      {-0.00039426930015906691551f, -0.00037485614302568137646f, 0.00083687884034588932991f},
      {-0.00032317190198227763176f, -0.00043539053876884281635f, 0.00053041073260828852654f}
    },
    {
      {-2.0516674339887686074e-05f, -0.013813446275889873505f, -0.0056166625581681728363f},
      {0.0034491615369915962219f, -0.0086965532973408699036f, -0.00053496804321184754372f},
      {0.0026122650597244501114f, -0.0088621964678168296814f, -3.1549981940770521760e-05f}
    },
    {
      {-0.0056550162844359874725f, -0.0097785620018839836121f, 0.013521697372198104858f},
      {-0.0057310699485242366791f, -0.0078457305207848548889f, 0.018845696002244949341f},
      {-0.0091931577771902084351f, -0.012915174476802349091f, 0.0059146420098841190338f}
    },
    {
      {-0.0036353981122374534607f, -0.0073753297328948974609f, 0.010722353123128414154f},
      {-0.0026296761352568864822f, -0.0047148466110229492188f, 0.013753552921116352081f},
      {-0.0036588804796338081360f, -0.0070250732824206352234f, 0.0077688433229923248291f}
    },
    {
      {-0.0032527828589081764221f, -0.0031219285447150468826f, -0.0052023064345121383667f},
      {-0.0048399502411484718323f, -0.0050631067715585231781f, -0.0069713946431875228882f},
      {-0.0057252617552876472473f, -0.0061470777727663516998f, -0.0074187959544360637665f}
    },
    {
      {-0.0041627492755651473999f, -0.0042398232035338878632f, -0.0066777551546692848206f},
      {-0.0069435839541256427765f, -0.0075511694885790348053f, -0.0094811245799064636230f},
      {-0.0091368732973933219910f, -0.010036355815827846527f, -0.011543197557330131531f}
    },
    {
      {-0.0029538911767303943634f, -0.0075020445510745048523f, 0.0064636431634426116943f},
      {0.0036130400840193033218f, 0.0019427597289904952049f, 0.014751253649592399597f},
      {0.0079973349347710609436f, 0.0086395218968391418457f, 0.018209572881460189819f}
    },
    {
      {0.00023858096392359584570f, -0.0020947710145264863968f, -0.00039354333421215415001f},
      {0.0024232175201177597046f, 0.0015744563424959778786f, 0.0019627844449132680893f},
      {0.0041693509556353092194f, 0.0051193856634199619293f, 0.0040391976945102214813f}
    },
    {
      {-0.0049660685472190380096f, -0.014404627494513988495f, 0.011956181377172470093f},
      {0.0030588835943490266800f, -0.0022880765609443187714f, 0.021214051172137260437f},
      {0.0047941957600414752960f, 0.0011257049627602100372f, 0.020172517746686935425f}
    },
    {
      {-0.0067464145831763744354f, -0.014518738724291324615f, 0.014709303155541419983f},
      {-0.0060036429204046726227f, -0.011488115414977073669f, 0.021918557584285736084f},
      {-0.010428384877741336823f, -0.016208412125706672668f, 0.0084255822002887725830f}
    },
    {
      {-0.0014840174699202179909f, -0.0024972548708319664001f, 0.0033671306446194648743f},
      {-0.0018453859956935048103f, -0.0016602048417553305626f, 0.0033593757543712854385f},
      {-0.0018928559729829430580f, -0.0026769267860800027847f, 0.0016398351872339844704f}
    },
    {
      {5.9149635490030050278e-05f, -0.0010560221271589398384f, -0.00028771761571988463402f},
      {0.00030894789961166679859f, -7.1027818194124847651e-05f, 5.5444877943955361843e-05f},
      {0.00029766306397505104542f, 0.00064385629957541823387f, 0.00024937195121310651302f}
    },
    {
      {-0.00044145440915599465370f, -0.00032944016857072710991f, -0.00045488390605896711349f},
      {-0.00060570868663489818573f, -0.00051997543778270483017f, -0.00063080992549657821655f},
      {-0.00066206220071762800217f, -0.00059764320030808448792f, -0.00066834886092692613602f}
    },
    {
      {-0.0079721752554178237915f, -0.0038215110544115304947f, -0.0099756661802530288696f},
      {-0.0076681808568537235260f, -0.0052816388197243213654f, -0.012034681625664234161f},
      {-0.0061431694775819778442f, -0.0035477592609822750092f, -0.0081513412296772003174f}
    },
    {
      {-6.2614753915113396943e-06f, 3.3913584047695621848e-05f, -6.2692915889783762395e-06f},
      {1.7579078530616243370e-06f, 0.00012638377666007727385f, -4.3018708311137743294e-06f},
      {1.1853889191115740687e-05f, 4.1951974708354100585e-05f, 2.5249494228773983195e-06f}
    },
    {
      {-0.0031225127167999744415f, -0.0064123286865651607513f, 0.0029443264938890933990f},
      {-0.0014183489838615059853f, -0.0037040307652205228806f, 0.0060660284943878650665f},
      {-0.0018066070042550563812f, -0.0044174226932227611542f, 0.0032332970295101404190f}
    },
    {
      {-1.7809033137083929432e-09f, -2.1813137962567452632e-09f, -2.5030408856707708765e-09f},
      {-1.8817896130229883056e-09f, -1.8713666172232024110e-09f, -2.6561766119925778185e-09f},
      {-1.6230307098297203083e-09f, -1.5412210396803516232e-09f, -2.3884438871135671434e-09f}
    },
    {
      {-0.0015126592479646205902f, -0.0043428549543023109436f, -0.00099112687166780233383f},
      {-0.00033093447564169764519f, -0.0026523058768361806870f, 0.00081426079850643873215f},
      {-0.00025476474547758698463f, -0.0025815779808908700943f, 0.00010909595584962517023f}
    },
    {
      {-0.0052930354140698909760f, -0.011510377749800682068f, 0.0089363977313041687012f},
      {-0.0034451133105903863907f, -0.0074623078107833862305f, 0.015355603769421577454f},
      {-0.0059141968376934528351f, -0.010148143395781517029f, 0.0065163956023752689362f}
    },
    {
      {-3.7477636283256288152e-07f, -3.8721179862477583811e-07f, -3.7792685247950430494e-07f},
      {-5.9339561175875132903e-07f, -8.2585239624677342363e-07f, -2.4950857095973333344e-06f},
      {-5.0365997594781219959e-07f, 8.1335355117673202585e-10f, -1.6704682366253109649e-06f}
    },
    {
      {-0.00022475293371826410294f, -0.00073468376649543642998f, 1.5041626284073572606e-05f},
      {0.00024721628869883716106f, 0.00043466503848321735859f, 0.00029220071155577898026f},
      {0.00082207378000020980835f, 0.0010570799931883811951f, 0.0013329633511602878571f}
    },
    {
      {-0.0033809754531830549240f, -0.0046576457098126411438f, 0.0059836828149855136871f},
      {-0.0037850441876798868179f, -0.0037964996881783008575f, 0.0074731158092617988586f},
      {-0.0053699114359915256500f, -0.0067496863193809986115f, 0.0020548210013657808304f}
    },
    {
      {0.00034317831159569323063f, -0.0013777435524389147758f, 0.00060577393742278218269f},
      {0.0037340628914535045624f, 0.0036972512025386095047f, 0.0045211603865027427673f},
      {0.0069005773402750492096f, 0.0089974580332636833191f, 0.0078344829380512237549f}
    },
    {
      {-0.037049867212772369385f, -0.0037172220181673765182f, -0.0071228779852390289307f},
      {-0.0072221099399030208588f, 0.020169632509350776672f, 0.013764445669949054718f},
      {0.033129200339317321777f, 0.046748176217079162598f, 0.039753969758749008179f}
    },
    {
      {-0.0018710570875555276871f, -0.0032365771476179361343f, 0.0025673410855233669281f},
      {-0.0012267950223758816719f, -0.0022594805341213941574f, 0.0044268197380006313324f},
      {-0.0016947785625234246254f, -0.0031325765885412693024f, 0.0012474519899114966393f}
    },
    {
      {-0.00075221766019240021706f, -0.0062362439930438995361f, -0.0077606192789971828461f},
      {-0.00015204653027467429638f, -0.0038025416433811187744f, -0.0065415110439062118530f},
      {0.00077791599323973059654f, -0.0040795370005071163177f, -0.0041242348961532115936f}
    }
  },
  {
    {
      {0.0046810186468064785004f, -0.0021805507130920886993f, -0.0032480480149388313293f},
      {0.00030414148932322859764f, -0.0027504027821123600006f, -0.0044102962128818035126f},
      {-0.0025938116014003753662f, -0.0060869213193655014038f, -0.0080692665651440620422f}
    },
    {
      {-0.00039227565866895020008f, -0.00034191278973594307899f, -0.00029098888626322150230f},
      {-0.00047263989108614623547f, -0.00043901172466576099396f, -0.00039280898636206984520f},
      {-0.00045064877485856413841f, -0.00040670178714208304882f, -0.00034616561606526374817f}
    },
    {
      {-0.00020943273557350039482f, -0.00018046933109872043133f, -0.00016533143934793770313f},
      {-0.00025640663807280361652f, -0.00022562901722267270088f, -0.00019521491776686161757f},
      {-0.00024849310284480452538f, -0.00021222110080998390913f, -0.00017913908232003450394f}
    },
    {
      {-0.0048693655990064144135f, -0.0043693957850337028503f, -0.0060740718618035316467f},
      {-0.0036246157251298427582f, -0.0024033472873270511627f, -0.0029952004551887512207f},
      {-0.0042829071171581745148f, -0.0030737784691154956818f, -0.0034104546066373586655f}
    },
    {
      {0.0059307217597961425781f, 0.0014061187393963336945f, -0.0016397136496379971504f},
      {0.015300679951906204224f, 0.011168787255883216858f, 0.0087134242057800292969f},
      {0.011528252623975276947f, 0.0068924212828278541565f, 0.0043868888169527053833f}
    },
    {
      {0.0087759150192141532898f, -0.0056772115640342235565f, -0.0081635443493723869324f},
      {0.0015173078281804919243f, -0.0020381475333124399185f, -0.0054200990125536918640f},
      {0.00026294725830666720867f, -0.0072979400865733623505f, -0.011721467599272727966f}
    },
    {
      {0.0016356251435354351997f, 0.0011593083618208765984f, 0.00069514289498329162598f},
      {0.0018572377739474177361f, 0.0015461789444088935852f, 0.0011981757124885916710f},
      {0.0016582359094172716141f, 0.0014250854728743433952f, 0.00095990928821265697479f}
    },
    {
      {0.017750065773725509644f, -0.0020153706427663564682f, -0.00016657674859743565321f},
      {0.040468558669090270996f, 0.017433049157261848450f, 0.028031056746840476990f},
      {0.042128816246986389160f, 0.0018027294427156448364f, 0.0020789457485079765320f}
    },
    {
      {0.018530981615185737610f, 0.0041334158740937709808f, 0.0023282577749341726303f},
      {0.021758286282420158386f, 0.011268879286944866180f, 0.0054932795464992523193f},
      {0.016907261684536933899f, 0.0017539943801239132881f, 0.00070545973721891641617f}
    },
    {
      {0.019636074081063270569f, 0.0025378717109560966492f, 0.0050629768520593643188f},
      {0.031987000256776809692f, 0.018570631742477416992f, 0.015017908066511154175f},
      {0.024168552830815315247f, 0.010964964516460895538f, 0.0087114498019218444824f}
    },
    {
      {-0.010638790205121040344f, -0.0081873182207345962524f, -0.0076752514578402042389f},
      {-0.013193617574870586395f, -0.011269038543105125427f, -0.010614352300763130188f},
      {-0.011316325515508651733f, -0.0097366953268647193909f, -0.0088231833651661872864f}
    },
    {
      {-0.014921830967068672180f, -0.011175682768225669861f, -0.010230522602796554565f},
      {-0.019520556554198265076f, -0.016198590397834777832f, -0.015266840346157550812f},
      {-0.016299210488796234131f, -0.013672152534127235413f, -0.011956579983234405518f}
    },
    {
      {0.023988742381334304810f, 0.0043033896945416927338f, 0.0049543594941496849060f},
      {0.040961693972349166870f, 0.023167328909039497375f, 0.022870155051350593567f},
      {0.031550161540508270264f, 0.014271075837314128876f, 0.015668505802750587463f}
    },
    {
      {0.0099326372146606445312f, 0.0047547454014420509338f, 0.0050635221414268016815f},
      {0.015521594323217868805f, 0.010780274868011474609f, 0.010580344125628471375f},
      {0.013598517514765262604f, 0.0079353461042046546936f, 0.0076840831898152828217f}
    },
    {
      {0.043584004044532775879f, 0.0051775611937046051025f, 0.012224061414599418640f},
      {0.071287781000137329102f, 0.043685920536518096924f, 0.044914644211530685425f},
      {0.055433735251426696777f, 0.026603966951370239258f, 0.028273390606045722961f}
    },
    {
      {0.017321849241852760315f, -0.0087693920359015464783f, -0.0065260613337159156799f},
      {0.035866253077983856201f, 0.015976784750819206238f, 0.0077063567005097866058f},
      {0.022438036277890205383f, -0.00062735227402299642563f, 0.0045198723673820495605f}
    },
    {
      {0.0092483879998326301575f, 0.0064899711869657039642f, 0.0038885627873241901398f},
      {0.010014109313488006592f, 0.0080594364553689956665f, 0.0058731022290885448456f},
      {0.0084078637883067131042f, 0.0071025020442903041840f, 0.0042771073058247566223f}
    },
    {
      {0.0032986705191433429718f, 0.0022871561814099550247f, 0.0020021283999085426331f},
      {0.0047421548515558242798f, 0.0042728874832391738892f, 0.0039458107203245162964f},
      {0.0042590335942804813385f, 0.0034943723585456609726f, 0.0032807139214128255844f}
    },
    {
      {-0.00093514058971777558327f, -0.00078727747313678264618f, -0.00062735995743423700333f},
      {-0.0011853523319587111473f, -0.0011165235191583633423f, -0.00098969123791903257370f},
      {-0.0010437461314722895622f, -0.00099063711240887641907f, -0.00075715139973908662796f}
    },
    {
      {-0.020057190209627151489f, -0.014524143189191818237f, -0.014759611338376998901f},
      {-0.023409174755215644836f, -0.018624715507030487061f, -0.018074974417686462402f},
      {-0.019613988697528839111f, -0.015935502946376800537f, -0.013414666056632995605f}
    },
    {
      {-4.4039666136086452752e-08f, -7.3306587466959172161e-08f, -5.2700681152373363147e-08f},
      {-4.1954233864771595108e-08f, -7.7988147495489101857e-08f, -5.2832106689493230078e-08f},
      {-3.8430464144312281860e-08f, -5.6115087687658160576e-08f, -4.6479229354190465529e-08f}
    },
    {
      {0.020051416009664535522f, 0.0022936007007956504822f, 0.0055144522339105606079f},
      {0.030319500714540481567f, 0.016765946522355079651f, 0.014413861557841300964f},
      {0.019418187439441680908f, 0.0065988008864223957062f, 0.0093612112104892730713f}
    },
    {
      {2.0546415957500840932e-10f, 4.6046955137768463828e-10f, 2.7924354495389991371e-10f},
      {-7.9070161876360067765e-12f, 2.1693323526417174207e-10f, 1.0560187446717606008e-10f},
      {-7.8053390140109257800e-11f, 1.1962078549920818205e-10f, 8.4444791437210398044e-11f}
    },
    {
      {0.0098038651049137115479f, -0.0028281854465603828430f, -0.00013658347597811371088f},
      {0.013951312750577926636f, 0.0043260441161692142487f, 0.0078042233362793922424f},
      {0.010794521309435367584f, 0.00051737058674916625023f, 0.0041436590254306793213f}
    },
    {
      {0.028648011386394500732f, -0.0018426435999572277069f, 0.0042629679664969444275f},
      {0.039727080613374710083f, 0.019625110551714897156f, 0.016690975055098533630f},
      {0.031235627830028533936f, 0.0080547519028186798096f, 0.015320818871259689331f}
    },
    {
      {2.4431001790841885835e-14f, 1.0062194489218268326e-15f, 4.7509712728535202601e-16f},
      {3.9586528635194087600e-14f, 4.1456171410067161102e-17f, 5.5038119726163252615e-17f},
      {5.0902475458433280031e-14f, 3.4360010619378900890e-16f, 5.1127338830188096041e-17f}
    },
    {
      {-1.7012009266181848943e-05f, -1.2483603313739877194e-05f, -3.5223838494857773185e-05f},
      {-4.7707644625916145742e-06f, 1.1087538950960151851e-05f, -7.6091100709163583815e-07f},
      {-2.3148551917984150350e-05f, -1.6785343177616596222e-05f, -2.3908845832920633256e-05f}
    },
    {
      {0.013756508938968181610f, 0.0077825030311942100525f, 0.0036252469290047883987f},
      {0.013028544373810291290f, 0.0092047555372118949890f, 0.0047251069918274879456f},
      {0.0097331544384360313416f, 0.0062201172113418579102f, 0.0010720075806602835655f}
    },
    {
      {0.010440951213240623474f, 0.0048066126182675361633f, 0.0046915025450289249420f},
      {0.017371565103530883789f, 0.012869264930486679077f, 0.012505062855780124664f},
      {0.014675658196210861206f, 0.0091456957161426544189f, 0.0088361864909529685974f}
    },
    {
      {-0.023629365488886833191f, -0.017112966626882553101f, -0.025790499523282051086f},
      {-0.015376795083284378052f, -0.0086504193022847175598f, -0.013004080392420291901f},
      {-0.017765022814273834229f, -0.011148751713335514069f, -0.014169859699904918671f}
    },
    {
      {0.0081951385363936424255f, 1.9680639525176957250e-05f, -0.00052185507956892251968f},
      {0.013621628284454345703f, 0.0065133702009916305542f, 0.0040544415824115276337f},
      {0.010284300893545150757f, 0.0013079672353342175484f, 0.0035159499384462833405f}
    },
    {
      {0.026403853669762611389f, 0.017261968925595283508f, 0.015846870839595794678f},
      {0.035216685384511947632f, 0.023058572784066200256f, 0.019184838980436325073f},
      {0.030497396364808082581f, 0.020708415657281875610f, 0.013593237847089767456f}
    }
  },
  {
    {
      {0.034175340086221694946f, 0.061517428606748580933f, 0.082771457731723785400f},
      {0.036150742322206497192f, -0.020217228680849075317f, 0.014694225043058395386f},
      {0.012710167095065116882f, 0.0066466680727899074554f, 0.037622533738613128662f}
    },
    {
      {0.0095470948144793510437f, 0.0052230660803616046906f, 0.0069267386570572853088f},
      {0.0063176401890814304352f, 0.0038570170290768146515f, 0.0051125898025929927826f},
      {0.0023237417917698621750f, 4.5513868826674297452e-05f, 0.0018527037464082241058f}
    },
    {
      {0.0059428554959595203400f, 0.00028600564110092818737f, 0.00081338285235688090324f},
      {0.0052986913360655307770f, 0.00091595563571900129318f, 0.0010737293632701039314f},
      {0.0024306685663759708405f, -0.0016095793107524514198f, -0.0011309935944154858589f}
    },
    {
      {0.053214825689792633057f, -0.029929865151643753052f, -0.023807588964700698853f},
      {0.025073321536183357239f, -0.032632675021886825562f, -0.027929406613111495972f},
      {-0.0035166542511433362961f, -0.062670789659023284912f, -0.053821343928575515747f}
    },
    {
      {-0.059675492346286773682f, -0.074191376566886901855f, -0.085684284567832946777f},
      {-0.038465801626443862915f, -0.040574021637439727783f, -0.054745033383369445801f},
      {-0.0089827943593263626099f, -0.0036579470615833997726f, -0.021993782371282577515f}
    },
    {
      {0.020086044445633888245f, 0.067753568291664123535f, 0.080679863691329956055f},
      {0.016580343246459960938f, -0.010358490049839019775f, 0.055115230381488800049f},
      {0.038953509181737899780f, 0.015266694128513336182f, 0.097108282148838043213f}
    },
    {
      {-0.010270077735185623169f, -0.010856055654585361481f, -0.0081052687019109725952f},
      {-0.011241978034377098083f, -0.015756785869598388672f, -0.012375270947813987732f},
      {-0.011630200780928134918f, -0.015829931944608688354f, -0.0084159150719642639160f}
    },
    {
      {-0.097859233617782592773f, 0.022532697767019271851f, -0.020472848787903785706f},
      {-0.051197469234466552734f, 0.094228416681289672852f, 0.034185476601123809814f},
      {0.044964160770177841187f, 0.20470640063285827637f, 0.14517255127429962158f}
    },
    {
      {-0.0052638771012425422668f, 0.029571596533060073853f, 0.030049977824091911316f},
      {-0.0082438988611102104187f, -0.062832996249198913574f, -0.00026381554198451340199f},
      {0.038290917873382568359f, 0.0060626892372965812683f, 0.068706735968589782715f}
    },
    {
      {-0.048227164894342422485f, -0.00080844131298363208771f, 0.016974458470940589905f},
      {-0.058126028627157211304f, -0.065023340284824371338f, -0.034272193908691406250f},
      {0.012148723006248474121f, 0.012192167341709136963f, 0.067340597510337829590f}
    },
    {
      {0.051084201782941818237f, 0.054843764752149581909f, 0.053655225783586502075f},
      {0.057656776160001754761f, 0.056344922631978988647f, 0.062120981514453887939f},
      {0.020184671506285667419f, 0.017717767506837844849f, 0.027915664017200469971f}
    },
    {
      {0.073066130280494689941f, 0.085840530693531036377f, 0.099960587918758392334f},
      {0.080816030502319335938f, 0.065278068184852600098f, 0.075754940509796142578f},
      {0.026348458603024482727f, 0.025849550962448120117f, 0.046744354069232940674f}
    },
    {
      {-0.11531456559896469116f, -0.053127057850360870361f, -0.090506836771965026855f},
      {-0.11866576969623565674f, -0.039054214954376220703f, -0.066012412309646606445f},
      {-0.016028568148612976074f, 0.015724152326583862305f, 0.00020235602278262376785f}
    },
    {
      {-0.085280731320381164551f, -0.037921883165836334229f, -0.068137839436531066895f},
      {-0.050443038344383239746f, -0.012278741225600242615f, -0.031311418861150741577f},
      {-0.015353123657405376434f, 0.032386135309934616089f, 0.014907456934452056885f}
    },
    {
      {-0.15624193847179412842f, -0.053493544459342956543f, -0.085219234228134155273f},
      {-0.15960836410522460938f, -0.066427968442440032959f, -0.088445775210857391357f},
      {-0.030502339825034141541f, 0.044168855994939804077f, 0.018979536369442939758f}
    },
    {
      {-0.011206169612705707550f, 0.035716641694307327271f, 0.066494666039943695068f},
      {-0.020850488916039466858f, -0.013195894658565521240f, 0.015337370336055755615f},
      {0.041383706033229827881f, 0.081329777836799621582f, 0.10508197546005249023f}
    },
    {
      {-0.039720382541418075562f, -0.040592998266220092773f, -0.017130050808191299438f},
      {-0.039733171463012695312f, -0.060514796525239944458f, -0.028808947652578353882f},
      {-0.035556200891733169556f, -0.059136819094419479370f, -0.014078652486205101013f}
    },
    {
      {-0.027050375938415527344f, -0.015068530105054378510f, -0.024319896474480628967f},
      {-0.034531977027654647827f, -0.016194093972444534302f, -0.028591467067599296570f},
      {-0.023108962923288345337f, 0.0015240549109876155853f, -0.014345666393637657166f}
    },
    {
      {0.013024031184613704681f, 0.0096478201448917388916f, 0.012516009621322154999f},
      {0.012796371243894100189f, 0.0064510242082178592682f, 0.0098542179912328720093f},
      {0.0018812543712556362152f, 0.00088383880211040377617f, -0.00087581627303734421730f}
    },
    {
      {0.099319867789745330811f, 0.063309259712696075439f, 0.062894761562347412109f},
      {0.043753992766141891479f, 0.021783208474516868591f, 0.0091492068022489547729f},
      {0.0013486783718690276146f, -0.049058724194765090942f, -0.052374921739101409912f}
    },
    {
      {1.3137970711341040442e-07f, -1.9452265860309125856e-06f, 1.9224214042878884356e-07f},
      {7.2404070294851408107e-08f, -2.5427260652577388100e-07f, 1.3139838017650617985e-07f},
      {6.3971057784328877460e-08f, 3.8144869449752150103e-06f, 1.2634909296593832551e-07f}
    },
    {
      {-0.080141201615333557129f, -0.0060561993159353733063f, -0.030456412583589553833f},
      {-0.078559197485446929932f, -0.010431486181914806366f, -0.038008272647857666016f},
      {0.0031297721434384584427f, 0.084008879959583282471f, 0.066649913787841796875f}
    },
    {
      {2.6855039436668448616e-07f, 5.6439816376041562762e-08f, 4.9293640813630190678e-07f},
      {-9.7424511125154822366e-08f, -3.6130721525751141598e-08f, 5.4929877535414561862e-08f},
      {-2.5602878395147854462e-07f, -2.3559920236948528327e-07f, -1.3685762212389818160e-07f}
    },
    {
      {-0.048965610563755035400f, 0.015335976146161556244f, 0.0050909160636365413666f},
      {-0.024439936503767967224f, 0.063114985823631286621f, 0.038518890738487243652f},
      {0.039761334657669067383f, 0.094458892941474914551f, 0.080955460667610168457f}
    },
    {
      {-0.065472312271595001221f, 0.0080550163984298706055f, 1.9551038349163718522e-05f},
      {-0.066548988223075866699f, -0.029556905850768089294f, -0.0024973864201456308365f},
      {0.027907291427254676819f, 0.063342526555061340332f, 0.060674298554658889771f}
    },
    {
      {8.1397929534432478249e-06f, 1.9234557839808985591e-06f, 1.2250258123458479531e-06f},
      {3.2455420750920893624e-06f, -4.6215296833906904794e-07f, -8.4946769618454709416e-08f},
      {-1.1498190133352181874e-07f, -9.9168801170890219510e-07f, -6.8650660978164523840e-07f}
    },
    {
      {6.6414897446520626545e-05f, -0.00075882830424234271049f, -0.00031105728703550994396f},
      {0.00015585191431455314159f, -0.00025377547717653214931f, -8.1965583376586437225e-05f},
      {-7.5265197665430605412e-05f, -0.00054618966532871127129f, -7.0421592681668698788e-05f}
    },
    {
      {-0.021333698183298110962f, -0.029308769851922988892f, 0.024928605183959007263f},
      {-0.0082207489758729934692f, -0.063131168484687805176f, -0.011215033940970897675f},
      {-0.012350401841104030609f, -0.060788892209529876709f, 0.017543582245707511902f}
    },
    {
      {-0.088906586170196533203f, -0.047725424170494079590f, -0.069292180240154266357f},
      {-0.075485385954380035400f, -0.025521131232380867004f, -0.056117355823516845703f},
      {-0.036844708025455474854f, 0.014861086383461952209f, -0.011696347966790199280f}
    },
    {
      {0.097102314233779907227f, -0.055623397231101989746f, -0.056221235543489456177f},
      {0.049722488969564437866f, -0.087370052933692932129f, -0.074206441640853881836f},
      {-0.0096810301765799522400f, -0.14913383126258850098f, -0.14878264069557189941f}
    },
    {
      {-0.026936948299407958984f, 0.018213350325822830200f, 0.0092067504301667213440f},
      {-0.031179603189229965210f, 0.0041911955922842025757f, -0.0072201183065772056580f},
      {0.028215305879712104797f, 0.051356580108404159546f, 0.063387930393218994141f}
    },
    {
      {-0.066503658890724182129f, -0.0097432266920804977417f, -0.055060598999261856079f},
      {-0.0041638268157839775085f, 0.046869862824678421021f, 0.0032125681173056364059f},
      {0.020957769826054573059f, 0.089667923748493194580f, 0.064347058534622192383f}
    }
  },
  {
    {
      {-2.2298584667623799760e-07f, -1.8419832485960796475e-05f, 0.00019393760885577648878f},
      {3.2889656722545623779e-06f, -6.4515124904573895037e-06f, 0.00021645890956278890371f},
      {-5.1792244448733981699e-06f, -2.5984629246522672474e-05f, 9.8496566351968795061e-05f}
    },
    {
      {-2.7649393885553763539e-09f, -4.5787737490421420716e-10f, -7.9035231692614615895e-09f},
      {-3.0134097439571405630e-09f, -2.2630675111656728404e-09f, -4.4781862662546245701e-09f},
      {-1.8098041953962251682e-09f, -3.4764841005952007436e-10f, -1.8844938942663702619e-09f}
    },
    {
      {-3.4532077197724220241e-10f, -1.0053780030716552574e-09f, -6.0194960127546437434e-10f},
      {-7.8640216560899034448e-10f, -1.0408720552135264370e-09f, -1.5379031381712593429e-10f},
      {-1.2868829335488385368e-09f, -1.9527561789800529368e-09f, -5.5126070375166591475e-10f}
    },
    {
      {4.0774317255909409141e-08f, -9.1398078438942320645e-08f, -1.4600816200527333422e-07f},
      {-8.6172555313623888651e-08f, -1.1646545772237004712e-07f, -8.4363868779746553628e-08f},
      {-6.9137556124587717932e-08f, -8.0329385809818631969e-08f, -2.6462463331711205683e-09f}
    },
    {
      {-7.1797494172187725781e-08f, -6.0158726000736351125e-07f, 1.4576989393333406042e-08f},
      {-1.5306234502077131765e-07f, -5.6151498029066715389e-07f, -2.5467499220610534394e-09f},
      {-1.3843499857557617361e-07f, -6.0580254057640559040e-07f, 1.2781578462295328791e-08f}
    },
    {
      {1.4870024642732460052e-06f, -9.1886649897787719965e-05f, 0.00052669941214844584465f},
      {1.1045981409552041441e-06f, -1.4841127267573028803e-05f, 0.00041682206210680305958f},
      {-2.1708630811190232635e-05f, -7.8064040280878543854e-05f, 0.00051862449618056416512f}
    },
    {
      {-1.6138221781147876754e-07f, -2.9424231797747779638e-06f, 2.5014489438035525382e-05f},
      {5.9685640962925390340e-07f, -2.1562566416832851246e-06f, 1.6965912436717189848e-05f},
      {3.3944257182838555309e-08f, -1.2653548537855385803e-06f, 4.6275481508928351104e-06f}
    },
    {
      {8.5510762914964288939e-08f, -1.1255687013544957153e-06f, -2.5394790554855717346e-06f},
      {-3.4606370036271982826e-07f, -8.9230189814770710655e-07f, -6.5983118702206411399e-07f},
      {3.2340693678634124808e-07f, -1.1047400221286807209e-06f, 8.0341982311438187025e-07f}
    },
    {
      {-7.5974953688273672014e-06f, -0.00010994516924256458879f, 0.0010179778328165411949f},
      {3.5485285479808226228e-05f, -5.1227783842477947474e-05f, 0.0011523984139785170555f},
      {-3.7131412682356312871e-05f, -8.6172440205700695515e-05f, 0.00068683997960761189461f}
    },
    {
      {8.7547750808880664408e-06f, -8.1661848525982350111e-05f, 0.00079828815069049596786f},
      {5.6079211390169803053e-06f, -3.9400238165399059653e-05f, 0.00060831685550510883331f},
      {-2.9781560442643240094e-05f, -5.0903043302241712809e-05f, 0.00041113796760328114033f}
    },
    {
      {-9.1799778889622984934e-10f, 2.7212786335439886898e-07f, -2.7854488493517237657e-08f},
      {1.2654455261440489267e-08f, 9.5938133881645626388e-08f, -1.7326124535088638368e-08f},
      {6.7346206389373719503e-10f, 3.3925779518995113904e-08f, -6.2929644828457753647e-10f}
    },
    {
      {2.3876558508106882073e-09f, 5.8782563883141847327e-07f, -1.1065127125675644493e-07f},
      {-4.7354693499812583468e-09f, 1.3834957712788309436e-07f, -8.9409013526164926589e-08f},
      {-9.3670298184633793426e-09f, 6.7205768061739945551e-08f, -7.0796779993997915881e-08f}
    },
    {
      {-5.7750281712287687697e-07f, -1.4262779586715623736e-05f, 6.7025707721768412739e-06f},
      {-1.1099318726337514818e-06f, -1.4732071576872840524e-05f, 1.1275214092165697366e-05f},
      {-1.6338028672180371359e-06f, -1.1961277778027579188e-05f, 1.0421962315376731567e-06f}
    },
    {
      {2.3415009930971564245e-09f, -3.0879341750278399559e-08f, -1.1971396096654984831e-10f},
      {3.5975329382154086488e-09f, -4.0647321952747006435e-08f, -1.3144106913998143682e-09f},
      {3.8365333132617251977e-09f, -1.0942100203692461946e-07f, -2.3850172947703640602e-09f}
    },
    {
      {-2.6709701614890946075e-06f, -4.3351068597985431552e-05f, 4.3421772716101258993e-05f},
      {-3.1579343158227857202e-06f, -4.0921073377830907702e-05f, 0.00015576722216792404652f},
      {-7.1183608270075637847e-06f, -4.2936942918458953500e-05f, 3.6084085877519100904e-05f}
    },
    {
      {-3.5442988064460223541e-06f, -0.00010572206520009785891f, 0.00029686995549127459526f},
      {1.1227568393223918974e-05f, -8.7484222603961825371e-05f, 0.00062114634783938527107f},
      {-3.5478627978591248393e-05f, -0.00013829901581630110741f, 0.00059518148191273212433f}
    },
    {
      {1.7254558315471513197e-06f, -1.4504394130199216306e-05f, 4.5451259211404249072e-05f},
      {6.5198241827602032572e-07f, -8.5817873696214519441e-06f, 7.1080423367675393820e-05f},
      {-1.8284060843143379316e-06f, -8.2074857346015051007e-06f, 2.7209047402720898390e-05f}
    },
    {
      {2.3074886446039499788e-10f, -5.1649915455698192090e-09f, -4.9874163826624240414e-11f},
      {7.2025579944678952415e-10f, -6.4209042527352266916e-09f, -9.8383157176584745685e-10f},
      {8.4120632681816687182e-10f, -9.9607948556013070629e-09f, -1.0154643792503748045e-09f}
    },
    {
      {-1.5541511411143460464e-09f, 3.4178761154635139974e-08f, -4.1689984797699253249e-09f},
      {-9.0645591033222672195e-10f, 6.0170579629925668996e-09f, -2.0001897915733479749e-09f},
      {-2.4084829686188413689e-09f, 8.5848883557559929613e-10f, -6.6955402333590541275e-10f}
    },
    {
      {9.0317604417577967979e-07f, 1.3399617273535113782e-06f, -3.5069570003543049097e-07f},
      {4.2855162973864935338e-07f, 9.3229579078979440965e-07f, -3.4408418514431104995e-07f},
      {4.4726112946591456421e-07f, 9.2989870381643413566e-07f, -7.3408955358900129795e-08f}
    },
    {
      {-7.9995081739281381772e-13f, -4.3127233555206867521e-12f, -4.4478055136534799807e-13f},
      {-1.0071796912106134592e-12f, 6.7128815527117691175e-12f, -7.8941687171527052946e-13f},
      {-8.7818066620698465030e-13f, 2.9027856507379823370e-11f, -6.9569111756095924903e-13f}
    },
    {
      {-1.8634817706697504036e-06f, -1.3238718565844465047e-05f, 5.3036346798762679100e-05f},
      {-1.5303473901440156624e-06f, -1.2470412002585362643e-05f, 0.00013155442138668149710f},
      {-2.5958979676943272352e-06f, -1.8485079635865986347e-05f, 6.1093351177987642586e-06f}
    },
    {
      {-2.5930292459129360150e-14f, -1.0174929746410016351e-13f, -4.2988128248072632331e-14f},
      {-4.6025588396926553347e-14f, -5.1560288021534547709e-14f, -5.6370449215588369629e-14f},
      {-2.4523350404949233183e-14f, -5.5959930462536836698e-15f, -3.2966542635928103300e-14f}
    },
    {
      {-1.5928938523757096846e-07f, -1.0047233445220626891e-06f, 1.3884168765798676759e-06f},
      {-1.5086153837273741374e-07f, -9.2589988298641401343e-07f, 2.3450422759196953848e-06f},
      {-2.2962227319567318773e-07f, -1.1558688584045739844e-06f, 1.3242773775345995091e-06f}
    },
    {
      {-7.8455996117554605007e-06f, -0.00013004842912778258324f, 0.00072929315501824021339f},
      {-1.3204190508986357599e-05f, -4.0043090848485007882e-05f, 0.00048033962957561016083f},
      {-2.3135955416364595294e-05f, -0.00011831754090962931514f, 0.00010434992873342707753f}
    },
    {
      {1.6236483398342064534e-17f, 5.4516925133594410641e-15f, -1.1019168840191093106e-13f},
      {2.2615201591703317993e-15f, -3.0387025741339756635e-17f, -9.1124909578916001322e-17f},
      {-2.7596315223571628880e-17f, 2.0173343247623098939e-15f, -1.1319029176134250830e-14f}
    },
    {
      {-8.7540197313273893087e-10f, -1.2257690862327308423e-08f, 2.7822508186226002636e-10f},
      {-6.3855393195311194177e-10f, -5.9441949140648375760e-09f, 5.9128917040407458217e-12f},
      {-3.3719003145193937598e-09f, -1.4529435432564241637e-08f, -1.4547353599514423195e-10f}
    },
    {
      {6.3716252043377608061e-06f, -1.7883585314848460257e-05f, 0.00025581449153833091259f},
      {9.0578341769287362695e-06f, -1.9658506062114611268e-05f, 0.00018917002307716757059f},
      {-3.5441155432636151090e-07f, -1.6052516002673655748e-05f, 0.00014502523117698729038f}
    },
    {
      {9.2581435851002424897e-09f, -2.1359819868393969955e-07f, 1.5442797041131939295e-09f},
      {8.0528170798288556398e-09f, -2.5363183908666542266e-07f, -1.2921013592404051451e-08f},
      {8.3631084280000322906e-09f, -2.9219762609500321560e-07f, -8.0374462640975252725e-09f}
    },
    {
      {1.2499241393015836366e-06f, 3.8090243492661102209e-07f, -4.3411071715127036441e-07f},
      {3.4885726307720688055e-08f, -1.8762936804250784917e-07f, -4.9884982900039176457e-07f},
      {5.5977341162360971794e-07f, -1.8362912612701620674e-07f, -1.0078417744807666168e-07f}
    },
    {
      {-2.4105722786771366373e-06f, -2.4897484763641841710e-05f, 0.00016505371604580432177f},
      {-4.3092022679047659039e-06f, -9.4423630798701196909e-06f, 0.00015586760127916932106f},
      {-8.4861503637512214482e-06f, -3.4946981031680479646e-05f, 0.00011505933071020990610f}
    },
    {
      {1.2959435480297543108e-07f, -2.6182833678944916755e-08f, -1.3011668187346003833e-08f},
      {8.7815934080026636366e-08f, -1.8989897654364540358e-08f, -4.5845882645778601727e-09f},
      {1.2467809540339658270e-07f, -9.6834170904003258329e-08f, 3.1071270001348239020e-08f}
    }
  },
  {
    {
      {2.7420390324550680816e-05f, 4.3956151785096153617e-05f, 4.8049460019683465362e-05f},
      {1.5641830032109282911e-05f, 2.5929655748768709600e-05f, 3.0088496714597567916e-05f},
      {8.1272237366647459567e-06f, 1.4697042388434056193e-05f, 1.9381317542865872383e-05f}
    },
    {
      {2.3952115291159259414e-10f, 3.2857938592201207939e-10f, -4.2846040604338497815e-10f},
      {8.0996481743866866054e-10f, 6.5940475302284085046e-10f, 7.6409694543810857681e-12f},
      {1.0108606174341616679e-09f, 5.3078397233008445255e-10f, -2.5642108228418614146e-11f}
    },
    {
      {6.8387727121879682279e-13f, 8.0126899039412169401e-13f, 9.1427007024164064219e-13f},
      {2.5925342059772427117e-13f, 2.5049404824700749472e-12f, 1.7128524076523432562e-12f},
      {5.2498939440495662190e-13f, 2.8691402552405431692e-12f, 1.0282255732615985799e-12f}
    },
    {
      {8.6756422490452678176e-08f, 6.3251732740354782436e-08f, 1.1550422129857906839e-07f},
      {9.2682164165580616100e-08f, 6.9073031738753343234e-08f, 9.7333455073567165527e-08f},
      {1.4299752137958421372e-07f, 1.0618786205895958119e-07f, 1.4291079253325733589e-07f}
    },
    {
      {7.2139044959840248339e-08f, 1.2675759819558152230e-07f, 9.3268219814035546733e-08f},
      {1.1751936312975885812e-07f, 2.2304843128040374722e-07f, 1.2763121048919856548e-07f},
      {1.2129952153827616712e-07f, 2.4152171818059287034e-07f, 1.7940712382369383704e-07f}
    },
    {
      {0.00015080902085173875093f, 0.00023201642034109681845f, 0.00023319119645748287439f},
      {8.5117666458245366812e-05f, 0.00012546502694021910429f, 0.00013871603005100041628f},
      {5.1533228543121367693e-05f, 8.0276389780919998884e-05f, 9.8138130852021276951e-05f}
    },
    {
      {-1.8226353759587254899e-08f, 1.4048555208034940733e-08f, 1.1610879369072790723e-07f},
      {-4.6995289437745668693e-08f, -5.9317766698541163350e-08f, 3.7877594394331026706e-08f},
      {-7.2810053097782656550e-08f, -7.8746644760485651204e-08f, -2.5896953914639198047e-08f}
    },
    {
      {-0.00010376774298492819071f, -4.8890480684349313378e-05f, -0.00011207382340217009187f},
      {-8.2924398157047107816e-06f, -3.2169613405130803585e-05f, -0.00013666403538081794977f},
      {1.9697286916198208928e-05f, 4.1972332837758585811e-05f, -7.6422111305873841047e-06f}
    },
    {
      {8.0428879300598055124e-05f, 0.00013241001579444855452f, 0.00019366641936358064413f},
      {4.4903645175509154797e-05f, 7.1454676799476146698e-05f, 0.00011541902495082467794f},
      {2.4475837562931701541e-05f, 4.1401672206120565534e-05f, 6.7134184064343571663e-05f}
    },
    {
      {3.4034306736430153251e-05f, 5.4442738473881036043e-05f, 0.00010906588431680575013f},
      {1.8717359125730581582e-05f, 2.8499358450062572956e-05f, 6.3527164456900209188e-05f},
      {1.0589439625618979335e-05f, 1.8475089746061712503e-05f, 4.7982681280700489879e-05f}
    },
    {
      {2.9564449732788489200e-07f, 1.9004279749879060546e-07f, 6.8173257261605613166e-08f},
      {4.5384732061393151525e-07f, 2.5021105898304085713e-07f, 1.8075762397984362906e-07f},
      {3.8549126202269690111e-07f, 2.3018172612410126021e-07f, 8.0882720965291809989e-08f}
    },
    {
      {1.6072933703981107101e-06f, 2.1554765226028393954e-06f, 1.1312495189486071467e-06f},
      {1.7685038073977921158e-06f, 1.8260215028931270353e-06f, 1.2473890365072293207e-06f},
      {1.4595434549846686423e-06f, 1.2863008578278822824e-06f, 8.4677753875439520925e-07f}
    },
    {
      {3.9003680285532027483e-06f, 5.4175970944925211370e-06f, 1.3036726159043610096e-05f},
      {3.3861547308333683759e-06f, 5.4042325245973188430e-06f, 1.1557674952200613916e-05f},
      {2.0316990685387281701e-06f, 4.8692199925426393747e-06f, 1.0055356142402160913e-05f}
    },
    {
      {-3.7985090628467332863e-09f, -4.1964302255337315728e-08f, -2.5372363765541194880e-08f},
      {3.2630818047607590415e-09f, -1.8739074292284385592e-08f, -1.6037430938808938663e-08f},
      {7.9863484714337573678e-09f, 3.1466978356320396415e-08f, 8.0922726297671943030e-09f}
    },
    {
      {3.2512652978766709566e-05f, 4.6908542572055011988e-05f, 9.0579400421120226383e-05f},
      {2.4620465410407632589e-05f, 3.4820321161532774568e-05f, 6.0637292335741221905e-05f},
      {1.8369873941992409527e-05f, 2.9108330636518076062e-05f, 5.9111385780852288008e-05f}
    },
    {
      {0.00015019337297417223454f, 0.00021427651518024504185f, 0.00027537564164958894253f},
      {8.4185267041902989149e-05f, 0.00012527494982350617647f, 0.00018015838577412068844f},
      {5.1518600230338051915e-05f, 7.7454118581954389811e-05f, 9.1878922830801457167e-05f}
    },
    {
      {4.2780078501891694032e-07f, 1.2302281220399891026e-06f, 2.3275601961358916014e-06f},
      {-3.9943568452827094006e-08f, 2.7646393618852016516e-07f, 1.3245878562884172425e-06f},
      {-4.2719125303847249597e-07f, -2.1174943753976549488e-07f, 5.4001304761186474934e-07f}
    },
    {
      {-9.4351237933665288438e-10f, -1.0964166463622859737e-08f, -6.0926703682184779609e-09f},
      {-2.7386386491912162455e-09f, -1.1442295999586349353e-08f, -8.4649451892460092495e-09f},
      {-2.0643831089017794511e-09f, 7.7791266483995258341e-11f, -5.8798996782627455104e-09f}
    },
    {
      {5.4465365550981914566e-09f, 4.0429197767366531480e-09f, 4.2975990821592091606e-11f},
      {8.5327718224448290130e-09f, 4.2887320361728598073e-09f, 2.1385546666863319842e-09f},
      {6.4304526148362128879e-09f, 2.9329021433710522615e-09f, -1.1205396610591833451e-09f}
    },
    {
      {2.1512350940611213446e-06f, 1.5384219977931934409e-06f, 1.3828306464347406290e-06f},
      {2.4827727429510559887e-06f, 1.6147013184308889322e-06f, 1.7193555095218471251e-06f},
      {2.2293481833912665024e-06f, 1.5949206044751917943e-06f, 1.2184736988274380565e-06f}
    },
    {
      {-1.2454993934036243259e-18f, -1.7645666966398422396e-16f, -6.1127127323293178985e-19f},
      {-1.3050679987155333747e-17f, -1.2562151881941843908e-15f, -5.5954897233945574036e-18f},
      {-6.2799291543132906873e-18f, -2.6931221975537347063e-16f, -4.8455950770141967634e-19f}
    },
    {
      {1.3966901860840152949e-05f, 1.8027358237304724753e-05f, 3.5924269468523561954e-05f},
      {8.4329649325809441507e-06f, 9.2500667960848659277e-06f, 1.7967877283808775246e-05f},
      {5.0012290557788219303e-06f, 1.0185831342823803425e-05f, 2.6580564735922962427e-05f}
    },
    {
      {-2.4393017868871687617e-15f, -2.0635433601668209946e-15f, -1.3359613284749270387e-15f},
      {-2.5211050525594368849e-15f, -1.8975776303059447084e-15f, -1.9268572299519209218e-15f},
      {-2.3663070285916349214e-15f, -2.1015268586205455847e-15f, -2.0007066444912343511e-15f}
    },
    {
      {4.1730195334821473807e-06f, 3.9764636312611401081e-06f, 8.9946479420177638531e-06f},
      {3.5590387597039807588e-06f, 1.8099284488926059566e-06f, 1.4763000990569707938e-06f},
      {5.0916924010380171239e-06f, 5.5353170864691492170e-06f, 7.8505345300072804093e-06f}
    },
    {
      {5.0315709813730791211e-05f, 7.6223586802370846272e-05f, 0.00014669160009361803532f},
      {3.0609466193709522486e-05f, 4.2710071284091100097e-05f, 8.8581720774527639151e-05f},
      {1.8459933926351368427e-05f, 3.4497923479648306966e-05f, 7.0774738560430705547e-05f}
    },
    {
      {2.0324055125096342054e-18f, 3.9771306555704717458e-19f, 1.2470558371237194166e-18f},
      {2.0140251457083996540e-18f, 2.4227365339369225959e-19f, 8.2475790393643642594e-19f},
      {1.5641302959372397084e-18f, 7.9751760559414639507e-19f, 1.5903439597417748628e-18f}
    },
    {
      {6.6737359995933109857e-14f, 2.9268334717641453224e-12f, 5.5389910323319635488e-13f},
      {2.0185166472314053365e-13f, 1.1571728818215998302e-11f, 5.4178607130153655369e-13f},
      {2.5090921094289564408e-13f, 3.3077462210234775952e-12f, 1.3395068474558735616e-12f}
    },
    {
      {9.7504525911062955856e-06f, 1.8357337467023171484e-05f, 2.3268967197509482503e-05f},
      {4.6947720875323284417e-06f, 9.6011171990539878607e-06f, 1.4384459063876420259e-05f},
      {1.3115239880789886229e-06f, 4.4680641622107941657e-06f, 9.0291769083705730736e-06f}
    },
    {
      {2.2358976892178361595e-08f, -1.1360491214418289019e-08f, -7.6543358318303944543e-09f},
      {4.4424329104231219389e-08f, 5.5676533605719669140e-08f, 2.8785265726583020296e-08f},
      {4.4122067777152551571e-08f, 1.0661089078212171444e-07f, 6.4592668991281243507e-08f}
    },
    {
      {3.3444312066421844065e-06f, 1.8486603039491456002e-06f, 3.0106464237178443000e-06f},
      {4.8839747250895015895e-06f, 3.3100902783189667389e-06f, 4.7046510189829859883e-06f},
      {7.2625880420673638582e-06f, 5.5059713304217439145e-06f, 7.2270358941750600934e-06f}
    },
    {
      {1.0134451258636545390e-05f, 1.6329475329257547855e-05f, 3.5230666981078684330e-05f},
      {5.7673883020470384508e-06f, 9.6802295956877060235e-06f, 1.6241008779616095126e-05f},
      {3.9000324250082485378e-06f, 6.7091523305862210691e-06f, 1.3408057384367566556e-05f}
    },
    {
      {-1.3935058973402192350e-07f, -5.7702408184923115186e-07f, 2.7970056493131778552e-08f},
      {6.4459925397386541590e-08f, -4.8026419108282425441e-07f, 1.0944657446998462547e-07f},
      {6.0958723224757704884e-07f, 7.3987814630527282134e-07f, 8.2103400700361817144e-07f}
    }
  },
  {
    {
      {0.086458124220371246338f, 0.098387219011783599854f, 0.10682851076126098633f},
      {0.070463716983795166016f, 0.063840284943580627441f, 0.087363719940185546875f},
      {0.080982960760593414307f, 0.062834315001964569092f, 0.092872150242328643799f}
    },
    {
      {0.0016047623939812183380f, 0.0014004627009853720665f, 0.0012221642537042498589f},
      {0.0018566171638667583466f, 0.0015633751172572374344f, 0.0014203354949131608009f},
      {0.0013395304558798670769f, 0.0011263148626312613487f, 0.0010704413289204239845f}
    },
    {
      {0.00068575359182432293892f, 0.00025225043646059930325f, 0.00014527296298183500767f},
      {0.00095318548846989870071f, 0.00058832473587244749069f, 0.00048752865404821932316f},
      {0.00060291076079010963440f, 0.00036566282506100833416f, 0.00022674277715850621462f}
    },
    {
      {0.0037548234686255455017f, -0.019242459908127784729f, -0.020005175843834877014f},
      {0.0031707645393908023834f, -0.0098306098952889442444f, -0.011929464526474475861f},
      {-0.0089232148602604866028f, -0.022268621250987052917f, -0.023791393265128135681f}
    },
    {
      {-0.041201762855052947998f, -0.070816405117511749268f, -0.052089639008045196533f},
      {-0.046816632151603698730f, -0.064365461468696594238f, -0.052450999617576599121f},
      {-0.028861442580819129944f, -0.050692640244960784912f, -0.046409394592046737671f}
    },
    {
      {0.10225842893123626709f, 0.096327558159828186035f, 0.14936722815036773682f},
      {0.085262857377529144287f, 0.10448048263788223267f, 0.093178510665893554688f},
      {0.11802107840776443481f, 0.075313515961170196533f, 0.12595154345035552979f}
    },
    {
      {0.0029333080165088176727f, 0.0031763606239110231400f, 0.0081952773034572601318f},
      {0.0025759357959032058716f, 0.0010156515054404735565f, 0.0044663562439382076263f},
      {0.0027808297891169786453f, 0.00048592087114229798317f, 0.0054926290176808834076f}
    },
    {
      {-0.077853970229625701904f, -0.049794986844062805176f, -0.030835999175906181335f},
      {-0.072213992476463317871f, -0.041994281113147735596f, -0.040608953684568405151f},
      {0.018206931650638580322f, 0.019911594688892364502f, 0.027787087485194206238f}
    },
    {
      {0.081974968314170837402f, 0.073293127119541168213f, 0.12655937671661376953f},
      {0.073498643934726715088f, 0.062550932168960571289f, 0.072909519076347351074f},
      {0.10662046074867248535f, 0.050743244588375091553f, 0.075164914131164550781f}
    },
    {
      {0.014874491840600967407f, 0.022478232160210609436f, 0.060643121600151062012f},
      {0.012366964481770992279f, 0.0036074293311685323715f, 0.033350672572851181030f},
      {0.056644532829523086548f, 0.031635779887437820435f, 0.052416529506444931030f}
    },
    {
      {0.023246230557560920715f, 0.020370518788695335388f, 0.016606999561190605164f},
      {0.023036796599626541138f, 0.018057975918054580688f, 0.015802836045622825623f},
      {0.0075886184349656105042f, 0.0068702618591487407684f, 0.0061283423565328121185f}
    },
    {
      {0.043892655521631240845f, 0.049843270331621170044f, 0.038957953453063964844f},
      {0.041050855070352554321f, 0.037730351090431213379f, 0.038245722651481628418f},
      {0.021754808723926544189f, 0.024350225925445556641f, 0.018357826396822929382f}
    },
    {
      {-0.038361884653568267822f, -0.059347666800022125244f, -0.026200579479336738586f},
      {-0.045880097895860671997f, -0.068140201270580291748f, -0.049490567296743392944f},
      {-0.0043956357985734939575f, -0.020667763426899909973f, -0.0011259150924161076546f}
    },
    {
      {-0.026905914768576622009f, -0.037631813436746597290f, -0.025101410225033760071f},
      {-0.033634934574365615845f, -0.039829179644584655762f, -0.032067280262708663940f},
      {-0.021040571853518486023f, -0.027087211608886718750f, -0.024700732901692390442f}
    },
    {
      {-0.043083421885967254639f, -0.057729590684175491333f, -0.023386705666780471802f},
      {-0.054070729762315750122f, -0.061698708683252334595f, -0.020469088107347488403f},
      {0.010289012454450130463f, 0.012920581735670566559f, 0.014005043543875217438f}
    },
    {
      {0.055801935493946075439f, 0.080566704273223876953f, 0.12403018772602081299f},
      {0.060187499970197677612f, 0.062638126313686370850f, 0.061991084367036819458f},
      {0.089416801929473876953f, 0.10604837536811828613f, 0.11082356423139572144f}
    },
    {
      {0.020710390061140060425f, 0.010602486319839954376f, 0.035389725118875503540f},
      {0.020497994497418403625f, 0.0062447232194244861603f, 0.026865424588322639465f},
      {0.016347890719771385193f, 0.0053124311380088329315f, 0.022626958787441253662f}
    },
    {
      {-0.0065133846364915370941f, -0.010044630616903305054f, -0.0078802090138196945190f},
      {-0.0086666280403733253479f, -0.011672839522361755371f, -0.010358314961194992065f},
      {-0.0069834608584642410278f, -0.010476036928594112396f, -0.0098297121003270149231f}
    },
    {
      {0.0031935127917677164078f, 0.0031543425284326076508f, 0.0025835915002971887589f},
      {0.0034995190799236297607f, 0.0032318942248821258545f, 0.0027055419050157070160f},
      {0.0016160790110006928444f, 0.0016340923029929399490f, 0.0013518923660740256310f}
    },
    {
      {0.040417805314064025879f, 0.020452944561839103699f, 0.013006892055273056030f},
      {0.027292890474200248718f, 0.017199438065290451050f, 0.0057818721979856491089f},
